UserID,e0,e1,e2,e3,e4,e5,e6,e7,e8,e9,e10,e11,e12,e13,e14,e15,e16,e17,e18,e19,e20,e21,e22,e23,e24,e25,e26,e27,e28,e29,e30,e31,e32,e33,e34,e35,e36,e37,e38,e39,e40,e41,e42,e43,e44,e45,e46,e47,e48,e49,e50,e51,e52,e53,e54,e55,e56,e57,e58,e59,e60,e61,e62,e63,e64,e65,e66,e67,e68,e69,e70,e71,e72,e73,e74,e75,e76,e77,e78,e79,e80,e81,e82,e83,e84,e85,e86,e87,e88,e89,e90,e91,e92,e93,e94,e95,e96,e97,e98,e99,e100,e101,e102,e103,e104,e105,e106,e107,e108,e109,e110,e111,e112,e113,e114,e115,e116,e117,e118,e119,e120,e121,e122,e123,e124,e125,e126,e127,e128,e129,e130,e131,e132,e133,e134,e135,e136,e137,e138,e139,e140,e141,e142,e143,e144,e145,e146,e147,e148,e149,e150,e151,e152,e153,e154,e155,e156,e157,e158,e159,e160,e161,e162,e163,e164,e165,e166,e167,e168,e169,e170,e171,e172,e173,e174,e175,e176,e177,e178,e179,e180,e181,e182,e183,e184,e185,e186,e187,e188,e189,e190,e191,e192,e193,e194,e195,e196,e197,e198,e199,e200,e201,e202,e203,e204,e205,e206,e207,e208,e209,e210,e211,e212,e213,e214,e215,e216,e217,e218,e219,e220,e221,e222,e223,e224,e225,e226,e227,e228,e229,e230,e231,e232,e233,e234,e235,e236,e237,e238,e239,e240,e241,e242,e243,e244,e245,e246,e247,e248,e249,e250,e251,e252,e253,e254,e255,e256,e257,e258,e259,e260,e261,e262,e263,e264,e265,e266,e267,e268,e269,e270,e271,e272,e273,e274,e275,e276,e277,e278,e279,e280,e281,e282,e283,e284,e285,e286,e287,e288,e289,e290,e291,e292,e293,e294,e295,e296,e297,e298,e299,e300,e301,e302,e303,e304,e305,e306,e307,e308,e309,e310,e311,e312,e313,e314,e315,e316,e317,e318,e319,e320,e321,e322,e323,e324,e325,e326,e327,e328,e329,e330,e331,e332,e333,e334,e335,e336,e337,e338,e339,e340,e341,e342,e343,e344,e345,e346,e347,e348,e349,e350,e351,e352,e353,e354,e355,e356,e357,e358,e359,e360,e361,e362,e363,e364,e365,e366,e367,e368,e369,e370,e371,e372,e373,e374,e375,e376,e377,e378,e379,e380,e381,e382,e383,e384,e385,e386,e387,e388,e389,e390,e391,e392,e393,e394,e395,e396,e397,e398,e399,e400,e401,e402,e403,e404,e405,e406,e407,e408,e409,e410,e411,e412,e413,e414,e415,e416,e417,e418,e419,e420,e421,e422,e423,e424,e425,e426,e427,e428,e429,e430,e431,e432,e433,e434,e435,e436,e437,e438,e439,e440,e441,e442,e443,e444,e445,e446,e447,e448,e449,e450,e451,e452,e453,e454,e455,e456,e457,e458,e459,e460,e461,e462,e463,e464,e465,e466,e467,e468,e469,e470,e471,e472,e473,e474,e475,e476,e477,e478,e479,e480,e481,e482,e483,e484,e485,e486,e487,e488,e489,e490,e491,e492,e493,e494,e495,e496,e497,e498,e499,e500,e501,e502,e503,e504,e505,e506,e507,e508,e509,e510,e511
FE21A160,0.012618358246982098,0.07983598113059998,-0.01075963955372572,-0.015364514663815498,0.04556994140148163,-0.08236782252788544,0.022437555715441704,-0.01345005352050066,0.00017528911121189594,-0.0027899881824851036,-0.018330810591578484,-0.055981434881687164,-0.059333521872758865,-0.005342018324881792,0.021481472998857498,-0.0008862597751431167,0.01953163929283619,-0.036539264023303986,-0.07420311868190765,-0.01870211772620678,0.030133217573165894,-0.0018098546424880624,-0.00022398885630536824,0.0634135901927948,-0.013406097888946533,0.012030616402626038,0.0231911800801754,-0.04401889443397522,0.058767884969711304,-0.025165516883134842,-0.1005684956908226,-0.0037728261668235064,-0.03461500257253647,0.0018725886475294828,0.02077004499733448,0.027860989794135094,-0.03526478260755539,-0.057026248425245285,-0.02566012740135193,0.020841900259256363,0.0009437805856578052,-0.006671194918453693,-0.011374501511454582,-0.00817496795207262,0.008345596492290497,0.035686615854501724,-0.04809416085481644,0.0549173541367054,-0.06686529517173767,0.09727276861667633,0.038320742547512054,-0.03014429844915867,-0.0011345380917191505,0.008745862171053886,0.0024401885457336903,-0.026051249355077744,-0.015753954648971558,-0.042686719447374344,0.05263180658221245,-0.015806887298822403,0.05104488879442215,0.008944189175963402,0.033125005662441254,-0.004144077189266682,0.007153092883527279,-0.0426815040409565,-0.037284065037965775,0.04994593933224678,0.0018198213074356318,0.045996200293302536,-0.02273864671587944,0.04154786095023155,-0.051290113478899,0.03395054489374161,0.05386228486895561,-0.020401183515787125,-0.040864624083042145,0.010770102962851524,0.001841824734583497,0.060065608471632004,0.06349782645702362,0.019350510090589523,-0.06475766748189926,-0.0005135691026225686,-0.008092282339930534,-0.033691633492708206,0.023104537278413773,-0.010946223512291908,0.026830341666936874,-0.027607697993516922,0.0507836639881134,0.004563120659440756,0.037440571933984756,-0.0521586649119854,0.005112551152706146,0.029870277270674706,-0.013705706223845482,0.037602268159389496,-0.0025568772107362747,-0.051121316850185394,0.02419316954910755,-0.029850628226995468,-0.07475513964891434,0.03331882134079933,-0.06929640471935272,0.01757841184735298,0.02419290877878666,0.014731213450431824,-0.04660401493310928,-0.032547712326049805,0.051384419202804565,-0.04209583252668381,0.060567378997802734,-0.010397078469395638,0.027766089886426926,-0.07669974863529205,-0.015142652206122875,-0.0534285232424736,-0.06995955854654312,-0.018553761765360832,0.023028891533613205,0.09156373888254166,-0.0476856604218483,-0.050133608281612396,0.016583964228630066,-0.04511936381459236,0.021034805104136467,-0.0372370183467865,-0.0012062545865774155,0.06596307456493378,-0.06357333809137344,-0.027921676635742188,0.005579984746873379,-0.04419206827878952,-0.04265225678682327,-0.05516958236694336,0.030335888266563416,-0.009719419293105602,-0.023354170843958855,0.08488809317350388,0.04845232889056206,0.02922101877629757,-0.0025150736328214407,0.0015645340317860246,0.008200470358133316,0.01871386170387268,0.022876489907503128,0.013089838437736034,-0.07418958842754364,-0.05046212673187256,-0.04296112060546875,-0.0018250340363010764,-0.1010090559720993,-0.023200623691082,0.02278541959822178,-0.049057457596063614,-0.09900149703025818,0.028493773192167282,-0.0022276868112385273,-0.003165286732837558,0.08969573676586151,-0.03853362053632736,0.03433297201991081,0.040736932307481766,-0.033606454730033875,0.022203190252184868,0.0189021285623312,0.036969754844903946,-0.04778927192091942,-0.05113384872674942,-0.008002487011253834,-0.03926504775881767,0.03802236542105675,-0.03256835788488388,0.046594057232141495,0.08274873346090317,-0.005569119937717915,0.012120390310883522,-0.03569764643907547,-0.022318769246339798,0.007251242641359568,-0.10102252662181854,-0.053881265223026276,-0.04054557904601097,0.005883407313376665,0.011311010457575321,-0.06890727579593658,-0.0399068221449852,-0.006643778644502163,0.07322602719068527,-0.018842920660972595,-0.01357774157077074,0.08969052881002426,-0.0443994477391243,0.0057174889370799065,-0.06064465641975403,-0.025364553555846214,-0.04605327546596527,-0.0718403235077858,-0.07168217748403549,-0.0247813630849123,-0.029494797810912132,0.023986881598830223,-0.017597828060388565,0.024367567151784897,-0.034843239933252335,0.06387702375650406,-0.04301438853144646,0.005341644398868084,0.0604381337761879,0.05842836573719978,0.02887381613254547,-0.022711358964443207,-0.034065477550029755,0.015194190666079521,0.01425161398947239,-0.023002952337265015,-0.010442215017974377,-0.07706108689308167,0.01189031545072794,-0.021749407052993774,-0.028538957238197327,-0.0672263577580452,0.031230470165610313,0.02332642301917076,0.000991073320619762,0.0028383643366396427,0.034837134182453156,-0.04987786337733269,-0.024538006633520126,-0.03841914236545563,-0.014206783846020699,-0.03904563933610916,-0.08429639786481857,-0.004324091132730246,0.009381822310388088,-0.03357511758804321,0.03736734017729759,0.011667555198073387,0.02775757387280464,0.04839461296796799,-0.025432715192437172,-0.07453025132417679,-0.0012282624375075102,0.04544666036963463,0.04360123723745346,0.051662445068359375,-0.006578512489795685,0.047925155609846115,-0.03625309094786644,-0.03410303220152855,0.0742875188589096,-0.03915723040699959,-0.05655263736844063,0.01457358617335558,-0.034920040518045425,-0.05839597061276436,0.05244830250740051,-0.06607431918382645,0.06312818825244904,0.026227619498968124,-0.015290903858840466,0.002626385074108839,-0.0666268989443779,0.007548868656158447,-0.0121205635368824,-0.030701428651809692,0.028330573812127113,-0.029967328533530235,-0.07514210045337677,0.05336817353963852,0.003045475808903575,0.03819175064563751,0.006243419833481312,0.037562303245067596,0.009025026112794876,0.048159174621105194,0.05551953241229057,0.046519532799720764,-0.012365860864520073,-0.0009839050471782684,-0.01154275145381689,0.027427995577454567,-0.0447101891040802,-0.004760067909955978,0.006784296128898859,0.03363553434610367,0.046342842280864716,-0.04608624428510666,-0.01498582772910595,-0.07359553128480911,-0.02369064651429653,0.03892022371292114,-0.023010525852441788,0.01220202911645174,-0.028423253446817398,-0.03460144251585007,-0.007159501314163208,0.0005615510162897408,-0.03577473387122154,0.04807503893971443,-0.03591546416282654,-0.00019810507365036756,-0.020527154207229614,0.030208870768547058,0.018721332773566246,0.07618656009435654,-0.08737362921237946,0.05925517529249191,0.05977582931518555,-0.032549403607845306,0.010075449012219906,0.04762726277112961,0.05181162804365158,0.05748707801103592,-0.04465233534574509,-0.0586295947432518,0.03858482092618942,-0.04030397906899452,-0.001858595060184598,-0.011368314735591412,0.03791380673646927,-0.01593174785375595,-0.006785432808101177,-0.014390644617378712,-0.06120268255472183,-0.04386439174413681,0.058957457542419434,-0.06422445923089981,0.022855859249830246,0.0001828582026064396,0.02148454263806343,-0.034850578755140305,0.0857444554567337,-0.05097449943423271,-0.05023892596364021,-0.07086997479200363,-0.029844233766198158,0.034615784883499146,0.024312544614076614,-0.002784325275570154,0.016156068071722984,0.02673577331006527,0.004584469832479954,0.064503513276577,-0.007517061196267605,-0.03454228490591049,0.03294543921947479,0.01473525632172823,-0.028857801109552383,-0.03743111342191696,-0.04260077327489853,-5.963109288131818e-05,-0.028344180434942245,-0.10003544390201569,0.07594380527734756,0.008145582862198353,-0.029945682734251022,0.04256360977888107,-0.01735593006014824,-0.00045613787369802594,0.0004400242178235203,-0.022701367735862732,0.04481728747487068,-0.035409171134233475,0.012286387383937836,0.018307093530893326,0.015144556760787964,0.023017829284071922,-0.0814952701330185,0.02269650436937809,-0.0006443938473239541,0.02778181992471218,0.0196316409856081,-0.006589139811694622,0.1034117192029953,-0.02745014987885952,-0.029926205053925514,-0.10419265925884247,0.004384445957839489,0.03215529024600983,-0.021675128489732742,-0.018482016399502754,0.036910366266965866,0.04246450215578079,0.00951182097196579,-0.009313153102993965,0.07559013366699219,-0.011408178135752678,0.008131762966513634,0.023825615644454956,0.018092196434736252,-0.027620380744338036,0.04656016081571579,-0.09507530182600021,-0.07651706784963608,0.021140532568097115,0.03262094408273697,-0.004069437738507986,-0.0154936034232378,-0.043768368661403656,0.0442863330245018,-0.00028528348775580525,0.00880841352045536,-0.028619443997740746,0.011656016111373901,-0.030867457389831543,-0.06176416203379631,0.027971643954515457,0.03888445347547531,-0.01108675729483366,0.04872216656804085,-0.06641660630702972,-0.00016612729814369231,0.016695285215973854,-0.03438999131321907,0.0023934345226734877,0.045984648168087006,-0.007166693918406963,-0.044615644961595535,-0.05573965981602669,-0.005784342996776104,0.007962077856063843,-0.06204160302877426,0.0037218318320810795,0.029169395565986633,0.06875234097242355,-0.05161639302968979,0.014851534739136696,-0.015527794137597084,-0.05352509021759033,0.0004204772412776947,-0.0021649098489433527,-0.08539800345897675,0.006340311374515295,-0.03603937476873398,-0.038311220705509186,-0.005376113578677177,0.050108522176742554,0.06034599989652634,-0.021244656294584274,0.013435648754239082,-0.04503238573670387,0.04572227597236633,-0.0638175755739212,0.042899273335933685,0.009593227878212929,0.053968243300914764,0.005737608764320612,-0.05823735520243645,-0.03316601738333702,-0.07474075257778168,-0.005389156751334667,-0.06239927560091019,-0.05300881713628769,0.040898073464632034,0.038309190422296524,0.01680159941315651,0.012743299826979637,-0.01005019061267376,0.02512763999402523,0.01920536532998085,0.012484627775847912,0.031733524054288864,0.04137761518359184,-0.0007795203709974885,0.03999347984790802,-0.02016555704176426,0.0024704155512154102,-0.006472090724855661,0.021040070801973343,0.013255263678729534,0.013613681308925152,-0.019740253686904907,-0.03544209524989128,0.0720057487487793,0.06650009006261826,0.05259285494685173,0.018075983971357346,-0.041035305708646774,0.0293313916772604,0.03946009278297424,-0.016123132780194283,0.03967383876442909,-0.012610343284904957,-0.03331749886274338,-0.022042470052838326,0.026755625382065773,0.033642373979091644,-0.02031278796494007,0.022560320794582367,-0.04226373881101608,0.06084152311086655,-0.08823292702436447,0.028590122237801552,-0.003615131601691246,-0.013447685167193413,-0.00942250620573759,0.026363540440797806,-0.04291093721985817,-0.033388372510671616,0.009949143044650555,0.027566615492105484,-0.05531412363052368,0.012742686085402966,0.10650476068258286,-0.0015946464845910668,0.011217718943953514,-0.020403120666742325,-0.08214063942432404,0.050836898386478424,-0.03702535107731819
FE21A159,0.00818287581205368,0.019859885796904564,0.01846499554812908,0.03320383280515671,0.039861246943473816,0.01974022388458252,-0.016565293073654175,0.0013960822252556682,-0.019153814762830734,-0.0675833523273468,0.052318643778562546,-0.025790119543671608,0.021031375974416733,0.010955547913908958,0.04592756927013397,-0.022758111357688904,-0.005050350446254015,-0.016883375123143196,0.031011957675218582,-0.00509529048576951,0.06462906301021576,-0.026511315256357193,-0.005858990363776684,0.0069965459406375885,-0.005715546198189259,0.046403832733631134,0.10749252140522003,0.0038451883010566235,0.08915670961141586,0.001176480669528246,0.023112542927265167,-0.018874164670705795,-0.042010415345430374,0.02060074731707573,0.00011129910126328468,-0.018207361921668053,-0.027335036545991898,0.0136153819039464,0.004651976283639669,-0.028708282858133316,-0.0020414679311215878,-0.0740150436758995,0.015978876501321793,0.012481640093028545,0.021947089582681656,-0.04914883151650429,-0.03040160797536373,-0.011053025722503662,-0.047284048050642014,0.019057059660553932,0.017400292679667473,0.019278962165117264,0.01215644832700491,0.035024844110012054,-0.011203461326658726,-0.006157995201647282,-0.0005325513193383813,0.025173824280500412,0.030745750293135643,0.04880676418542862,0.09083424508571625,0.01030434388667345,0.01809229515492916,0.025081485509872437,0.016208533197641373,0.043532341718673706,-0.033169470727443695,-0.03360067680478096,-0.01543213240802288,0.010360226035118103,-0.0506158247590065,0.024617556482553482,0.007655718829482794,0.01153366919606924,0.010855430737137794,0.06250171363353729,-0.019124766811728477,-0.0860736295580864,-0.05493081361055374,0.0059758881106972694,0.06581725180149078,0.03503522649407387,-0.0014239447191357613,0.018289754167199135,0.04308895021677017,-0.04385090246796608,0.022013332694768906,0.04299568384885788,0.07975213974714279,0.05316876247525215,0.025435347110033035,0.016667401418089867,0.010105838999152184,0.051772765815258026,0.02831878699362278,-0.003944893833249807,-0.0531163327395916,0.02566082775592804,-0.051894284784793854,-0.09294836968183517,0.05135922506451607,-0.08413093537092209,0.021184111014008522,0.024516277015209198,-0.033590856939554214,0.029269952327013016,0.01485690288245678,-0.021671250462532043,-0.04704111069440842,0.009013147093355656,-0.03403237462043762,0.07878681272268295,-0.07983571290969849,-0.0052696107886731625,0.021454159170389175,-0.05372440069913864,-0.0754186362028122,0.012009677477180958,-0.0056038787588477135,0.05137547850608826,0.006036410108208656,0.04571404308080673,-0.00809401087462902,-0.05983378738164902,-0.06423807889223099,-0.028099138289690018,0.00597062474116683,-0.028107013553380966,0.037524688988924026,0.029708459973335266,-0.014370610937476158,0.06223129481077194,0.044575415551662445,-0.005793545860797167,-0.04784693196415901,-0.013314825482666492,0.013390710577368736,-0.014573553577065468,-0.0771997943520546,0.033216703683137894,0.023126270622015,0.04139336943626404,-0.005973453633487225,0.02790914475917816,-0.036629825830459595,-0.027372177690267563,0.044555120170116425,0.02670193836092949,0.012587064877152443,-0.01598021201789379,0.03132352977991104,0.040335703641176224,-0.031552646309137344,-0.00017858148203231394,0.009073382243514061,-0.029127636924386024,-0.09810112416744232,0.009108329191803932,0.07659409940242767,-0.004401984624564648,0.08417302370071411,-0.06022046133875847,0.02384180948138237,0.05631648749113083,0.032937921583652496,-0.0013409819221124053,-0.021106461063027382,-0.03506600856781006,0.03579224273562431,0.03512866050004959,0.0532081313431263,0.01827542670071125,-0.017093278467655182,-0.07061915844678879,-0.02202078327536583,0.0007837340235710144,-0.037897996604442596,-0.023664312437176704,-0.011728527955710888,0.0088575454428792,-0.01699194312095642,-0.011694188229739666,-0.09660007804632187,-0.06776704639196396,-0.055506207048892975,-0.006292565260082483,-0.004863970912992954,0.03198660537600517,-0.05302167683839798,-0.0037123127840459347,0.016382543370127678,0.01005941815674305,0.05210859701037407,-0.0798206776380539,-0.00786054041236639,-0.06112673133611679,0.00874163769185543,-0.03066440299153328,-0.042897578328847885,-0.013171114027500153,0.07569845020771027,-0.02315053902566433,0.021844375878572464,0.01604827120900154,-0.019889062270522118,0.06680084019899368,0.001203557476401329,-0.06219528988003731,-0.013491918332874775,0.0032724332995712757,0.0207984521985054,-0.02984795905649662,-0.01544266939163208,0.02801564894616604,-0.02596060372889042,-0.09269137680530548,-0.0472225695848465,0.09428317844867706,0.0014791619032621384,0.04246613383293152,-0.07562382519245148,-0.05602824687957764,-0.050069741904735565,-0.005085940007120371,0.0561552532017231,0.0037927243392914534,0.023966532200574875,0.015347962267696857,-0.08343949913978577,-0.06060975044965744,0.028074780479073524,-0.011268965899944305,-0.006779112853109837,-0.04300693795084953,0.005917220376431942,0.04272521287202835,0.014166240580379963,0.03466024622321129,-0.06856606155633926,0.009657132439315319,-0.01745157688856125,0.02420842833817005,-0.0006978057208471,0.06493736803531647,0.011954216286540031,0.0681048259139061,-0.009149698540568352,-0.0016858766321092844,-0.0462806299328804,0.040216363966464996,-0.07269295305013657,-0.0019889771938323975,-0.02136945351958275,0.019613191485404968,-0.02178659662604332,-0.02209363505244255,-0.03612109273672104,0.0668407753109932,0.07740684598684311,-0.016889598220586777,0.016700750216841698,-0.0746002346277237,0.048890694975852966,-0.029811223968863487,0.01635412499308586,0.01527290977537632,0.03719324618577957,0.0008092190837487578,-0.03117557428777218,-0.012946052476763725,0.08574528992176056,0.003391895443201065,0.0511779859662056,0.04954906553030014,0.07588908076286316,0.026085037738084793,-0.012830276973545551,-0.008597485721111298,-0.030358660966157913,-0.03589349985122681,-0.07283112406730652,-0.035454411059617996,-0.014570146799087524,-0.0850418284535408,-0.04970637708902359,-0.010728736408054829,-0.03524915128946304,0.007111932151019573,0.029446739703416824,-0.04511733725667,0.0552530474960804,-0.01933346316218376,-0.037768054753541946,-0.0185322817414999,-0.03983370214700699,-0.0235800389200449,0.03619282692670822,-0.04102388396859169,0.02687479555606842,-0.00014430246665142477,0.06803687661886215,-0.0075040897354483604,0.05989072471857071,-0.03092917799949646,0.0652359277009964,-0.01709570921957493,-0.020037507638335228,0.08133292943239212,-0.007862276397645473,0.019468221813440323,0.028971737250685692,0.03203240782022476,0.077092245221138,0.07509879022836685,0.042845141142606735,0.0062015242874622345,-0.005555265583097935,-0.011281716637313366,-0.015526113100349903,0.009949414990842342,0.005656923167407513,-0.04705135151743889,-0.07714445888996124,0.0049095721915364265,0.010224616155028343,-0.02911243960261345,0.11239977180957794,0.07438047975301743,0.01738847978413105,0.021319594234228134,0.04875286668539047,-0.04213183745741844,-0.07631314545869827,0.048907965421676636,0.00031186602427624166,-0.03945621848106384,-0.03157280758023262,-0.07157576084136963,0.015735823661088943,0.002487479941919446,0.05848504230380058,-0.011677666567265987,0.029106926172971725,-0.0056795538403093815,0.01418690849095583,-0.021199805662035942,-0.009114379063248634,0.021435970440506935,-0.035915542393922806,0.020170804113149643,-0.02808232232928276,-0.06418170779943466,0.01455303467810154,0.020568767562508583,-0.06714429706335068,0.11922931671142578,0.0916370376944542,-0.0024720393121242523,0.0023729964159429073,0.008429938927292824,-0.04300442710518837,0.003687827382236719,-0.012407602742314339,0.024734104052186012,-0.00565338134765625,-0.018717218190431595,0.013750049285590649,-0.021618450060486794,0.006326276808977127,-0.01633913628757,0.020161200314760208,-0.007564178667962551,0.0027705575339496136,0.029706835746765137,0.03268619626760483,0.044574230909347534,0.047886691987514496,-0.04295264557003975,-0.05610622838139534,-0.004062040708959103,0.019223013892769814,-0.0059097083285450935,0.017466524615883827,-0.012222575023770332,0.04539850726723671,-0.03330095484852791,0.0024981366004794836,0.04545217752456665,-0.013417269103229046,-0.05266198515892029,0.018101055175065994,0.0008262088522315025,-0.04065639153122902,-0.052703894674777985,0.020415863022208214,-0.00859142653644085,0.004538489039987326,0.1158284991979599,-0.06830288469791412,-0.0005208522197790444,-0.03824043646454811,0.034623533487319946,0.09242009371519089,-0.023519467562437057,-0.105687715113163,0.05005098506808281,0.02988051436841488,-0.024580715224146843,0.04930165410041809,0.025675788521766663,0.06971254199743271,0.0631260871887207,-0.019238989800214767,0.016973057761788368,0.015462067909538746,-0.06523555517196655,-0.06547559797763824,0.056217871606349945,-0.030640199780464172,-0.014639879576861858,-0.02379078045487404,0.011323991231620312,-0.0013599711237475276,-0.004021501634269953,-0.036162227392196655,0.021272582933306694,-0.03908803313970566,0.028220510110259056,0.0756416991353035,-0.06533847004175186,-0.004063089843839407,0.023711424320936203,0.0013561451341956854,0.019457701593637466,-0.032262008637189865,0.014827394858002663,-0.006808867212384939,-0.02633427456021309,0.051094330847263336,-0.002596682868897915,0.004662112332880497,0.0009113050764426589,-0.026950206607580185,-0.02615215815603733,-0.041389286518096924,0.06599798053503036,-0.007435607723891735,0.05601006746292114,-0.006945373024791479,0.07010874152183533,-0.016618574038147926,-0.017626803368330002,-0.0025432920083403587,-0.04644099250435829,-0.03505779057741165,0.039009615778923035,-0.031513065099716187,0.027032678946852684,-0.011141696013510227,0.044230639934539795,-0.007228836417198181,-0.010697036981582642,0.03178851678967476,0.03603674843907356,0.021328045055270195,-0.06947009265422821,-0.02678099274635315,0.006758924573659897,-0.0183156356215477,-0.022098664194345474,-0.011375301517546177,-0.016029849648475647,0.07134175300598145,-0.07675711810588837,-0.03906874731183052,0.042654313147068024,0.03524121642112732,0.06738626956939697,-0.045497022569179535,-0.1172574907541275,0.024126268923282623,-0.018397439271211624,0.020209601148962975,0.04781971871852875,-0.04613765329122543,0.027204787358641624,-0.07210323959589005,0.03218001127243042,-0.033812277019023895,-0.021908465772867203,-0.029723897576332092,-0.013083649799227715,0.019367191940546036,-0.0035355272702872753,0.043120551854372025,-0.021177804097533226,0.0012988165253773332,-0.08937154710292816,0.01426142267882824,-0.005963394418358803,-0.014261814765632153,0.010399814695119858,-0.05718427896499634,-0.06539376080036163,-0.02913525328040123,0.03131628781557083,0.07517340034246445,-0.035250332206487656,-0.04201780632138252,0.04606563597917557,0.0920317992568016,-0.03003825806081295
FE21A140,0.05233445018529892,0.03607582300901413,-0.00011336244642734528,-0.0068563735112547874,-0.013754075393080711,0.028454851359128952,-0.02268197014927864,0.013047772459685802,-0.05605538934469223,-0.003248692024499178,-0.04421963170170784,-0.0656757578253746,-0.009029878303408623,-0.015174510888755322,0.004216442350298166,-0.04073645919561386,-0.017215823754668236,-0.040266331285238266,0.0077739134430885315,-0.050769757479429245,0.0027403957210481167,0.0023544274736195803,0.031294047832489014,0.08759762346744537,0.021291248500347137,0.09030385315418243,0.06343337148427963,-0.0399349220097065,-0.03562839329242706,0.010732799768447876,-0.036484040319919586,0.05610121041536331,-0.022142302244901657,-0.013795333914458752,-0.00171148800291121,0.004539184272289276,-0.04383183643221855,0.013988448306918144,-0.03129176050424576,-0.05485124513506889,-0.024702508002519608,0.0037191826850175858,-0.005647338926792145,-0.007406666874885559,0.022685859352350235,-0.008565771393477917,-0.060052961111068726,0.04208053648471832,-0.06779903173446655,0.026666071265935898,0.010634313337504864,-0.000339227553922683,0.0019626214634627104,0.023133080452680588,-0.04772688075900078,0.038692452013492584,0.02925829216837883,0.0038994892966002226,0.06394705176353455,0.010143226012587547,0.047643568366765976,-0.010819556191563606,0.0516791045665741,-0.03560252487659454,0.024716654792428017,0.0005930259940214455,-0.01629345305263996,-0.030323553830385208,0.01947263441979885,0.09884731471538544,0.0011705297511070967,0.02125326171517372,-0.005037678871303797,0.04626068100333214,-0.014379220083355904,0.05913368612527847,-0.07050152122974396,-0.0491463877260685,0.02054702676832676,0.041901301592588425,0.09212261438369751,0.04162139818072319,-0.0017802579095587134,0.012224345467984676,-0.002593481447547674,-0.026944374665617943,0.02121691405773163,0.0003413837403059006,0.0410318598151207,-0.046941522508859634,-0.023366602137684822,0.00414684321731329,0.045728571712970734,-0.008898182772099972,0.04834311455488205,-0.024789761751890182,-0.06036865711212158,-0.03824635595083237,-0.007165960967540741,-0.014161935076117516,0.06302431970834732,-0.05063058063387871,-0.06001637130975723,0.03349669650197029,-0.032676540315151215,0.06449659168720245,-0.0018752021715044975,-0.005070473067462444,-0.04401488974690437,-0.08450501412153244,-0.0221748985350132,-0.006182678043842316,-0.03269876539707184,-0.054874710738658905,-0.008458729833364487,-0.03730045258998871,-0.03264879435300827,-0.01975923217833042,-0.03537166118621826,0.0032608709298074245,-0.02433031052350998,0.011586113832890987,-0.032887283712625504,-0.04587232694029808,0.004382661543786526,-0.028328945860266685,0.0038206675089895725,0.03658675402402878,0.013354966416954994,0.01080491952598095,-0.04430334270000458,-0.058667413890361786,-0.004012707155197859,-0.014254981651902199,-0.059417955577373505,0.011257834732532501,0.027755245566368103,0.011306356638669968,-0.04369836673140526,0.049190837889909744,0.02379099652171135,0.019015153869986534,0.0006584277143701911,-0.03376255929470062,-0.002282847184687853,0.01747896894812584,0.0530652292072773,-0.0024727534037083387,-0.028299842029809952,0.024120938032865524,-0.0429171584546566,0.010807285085320473,-0.04105522483587265,0.006595338229089975,-0.006690644659101963,0.002291240496560931,-0.05535873770713806,0.022114871069788933,0.04815198853611946,-0.05323728173971176,0.03976732864975929,-0.015567893162369728,0.007555170450359583,0.03644156828522682,0.004017888568341732,-0.049558840692043304,-0.012187523767352104,0.0038382287602871656,-0.014567861333489418,-0.0176453348249197,0.06802196800708771,-0.014416498132050037,-0.0195942260324955,-0.009684939868748188,-0.00118243508040905,0.05414724349975586,-0.004999062512069941,0.007776530925184488,-0.06965227425098419,0.017652984708547592,-0.02276517078280449,-0.0159792210906744,-0.019233444705605507,-0.03129841014742851,0.03069302812218666,-0.019941940903663635,-0.001712774159386754,0.04838106036186218,0.004376666620373726,-0.02120169810950756,0.038264885544776917,0.0005625280318781734,0.0873054713010788,-0.08593966066837311,0.02030443213880062,-0.019517576321959496,0.02790653146803379,-0.05212727189064026,-0.04648711159825325,0.004417169373482466,0.024854527786374092,0.05562962219119072,-0.0005827536806464195,0.05575362592935562,0.0394049733877182,0.03804204985499382,0.02662498690187931,-0.05880368873476982,-0.022173156961798668,0.008532910607755184,0.07002431154251099,0.0005520758568309247,-0.037451885640621185,0.04638727381825447,0.02584519423544407,0.012670105323195457,0.03654462471604347,0.00014123079017736018,0.013365725986659527,0.03014468587934971,-0.026276875287294388,-0.0074223726987838745,-0.055556733161211014,0.0433330237865448,0.02923646569252014,-0.013516796752810478,-0.04231405258178711,0.02883821167051792,-0.0515783317387104,-0.01989302597939968,0.035367973148822784,0.05447910353541374,-0.0391789972782135,-0.04392089694738388,-0.0005525844171643257,0.0032986863516271114,-0.0007942899246700108,0.005330899730324745,-0.02638408914208412,-0.06668277084827423,0.029443884268403053,0.0036629587411880493,-0.07018773257732391,0.008437161333858967,0.06305200606584549,0.05764143541455269,0.02308623120188713,-0.013148163445293903,0.0480564683675766,0.03820645064115524,-0.046376828104257584,0.0007735571707598865,-0.02988375723361969,0.01251122634857893,0.02845572866499424,-0.04431058466434479,-0.033110734075307846,0.05621644854545593,-0.05852160602807999,0.04428566247224808,0.06198535114526749,-0.031378548592329025,0.0660981610417366,-0.04496343061327934,-0.04097570851445198,-0.04307978227734566,0.019936155527830124,-0.006084435619413853,-0.008612868376076221,-0.0011748794931918383,0.06344292312860489,0.013421682640910149,0.005366361699998379,0.005588705651462078,-0.016347868368029594,0.014483951032161713,0.03141077607870102,-0.0017343707149848342,0.0348217599093914,-0.03272194787859917,0.023139527067542076,-0.038300771266222,-0.030957376584410667,-0.08637503534555435,-0.039661016315221786,0.02448255941271782,0.025231946259737015,-0.02580234780907631,-0.058173768222332,-0.05797768756747246,-0.014260257594287395,0.011303373612463474,0.0364028699696064,-0.0005268407985568047,0.00278317928314209,-0.08631903678178787,-0.0067690713331103325,0.01302001066505909,0.006468136794865131,0.014245525002479553,0.06408105045557022,-0.0647963285446167,0.02683524414896965,-0.03894263133406639,0.02737453579902649,0.03112710453569889,-0.024372756481170654,-0.00015578772581648082,0.013930702582001686,0.07140515744686127,-0.033247265964746475,-0.03482165187597275,-0.00595475547015667,0.027027225121855736,-0.01873880997300148,0.013312473893165588,-0.05588926002383232,0.0039499481208622456,-0.03340050205588341,-0.0053069875575602055,0.04430340975522995,0.009208190254867077,-0.04537557438015938,-0.06160663813352585,-0.033478423953056335,0.02060767635703087,-0.0009579334291629493,-0.008408866822719574,-0.017796611413359642,-0.0336148664355278,0.07529206573963165,0.0020503606647253036,-0.009756414219737053,0.039502497762441635,0.02053583785891533,-0.010596144944429398,-0.0626857653260231,-0.0027160027530044317,0.006053928751498461,-0.06309415400028229,-0.027354588732123375,0.053642936050891876,0.06098603457212448,-0.04131881892681122,-0.019461197778582573,-0.009179934859275818,-0.0015100078890100121,0.058969646692276,0.017315659672021866,0.010953390970826149,-0.07977066934108734,-0.02490808069705963,-0.06185990571975708,-0.03901248425245285,-0.11943386495113373,0.06529532372951508,0.04469822719693184,-0.05759840086102486,0.007290590554475784,0.015533620491623878,0.016952287405729294,0.037075575441122055,0.008923436515033245,0.02864065393805504,-0.03902222216129303,-0.008983638137578964,0.07125280797481537,-0.005283985752612352,0.02770385704934597,-0.02112424559891224,0.028113404288887978,0.08735877275466919,0.013767378404736519,0.01688484475016594,-0.004351036157459021,0.02872553840279579,-0.03956698253750801,-0.03141436725854874,-0.020842421799898148,-0.029918123036623,0.03478722646832466,-0.029634956270456314,-0.003858488518744707,0.0033348114229738712,0.026816746219992638,-0.028694411739706993,0.03619461506605148,-0.004024151712656021,-0.02481900341808796,0.009311165660619736,0.03685132786631584,-0.014197198674082756,0.008856737054884434,-0.033945124596357346,-0.03101026453077793,-0.03252849727869034,-7.472559809684753e-05,0.028415367007255554,-0.034969404339790344,-0.01218306366354227,-0.04891706258058548,0.04477154463529587,-0.01678823120892048,0.027416754513978958,-0.02158399112522602,-0.008182416670024395,-0.009114865213632584,-0.028264354914426804,0.012920601293444633,0.05693476274609566,0.007906005717813969,0.02034970000386238,-0.02117135189473629,0.020017992705106735,0.02948695980012417,-0.033934127539396286,-0.011995245702564716,0.00903899222612381,-0.03526351600885391,0.03229973465204239,-0.037322595715522766,-0.05777223780751228,-0.004604898393154144,-0.01597311720252037,0.01563934236764908,-0.015611039474606514,0.05449577420949936,-0.006667287088930607,0.06519483029842377,-0.040267378091812134,-0.0006824041483923793,-0.049733966588974,-0.02431359328329563,-0.08403973281383514,0.01129680685698986,-0.009950038976967335,-0.02267138659954071,-0.012869536876678467,0.0807286724448204,-0.015509146265685558,-0.05551329255104065,-0.03374527394771576,-0.03299244865775108,0.06886602938175201,-0.01822498068213463,0.03608826547861099,-0.053880952298641205,0.10299716144800186,-0.027386482805013657,-0.03994706645607948,-0.0006701345555484295,0.016093607991933823,0.009409214369952679,-0.1020909994840622,-0.010308660566806793,0.03544654697179794,-0.02899688482284546,0.03241124004125595,0.025707226246595383,0.0324227437376976,-0.030971448868513107,0.05788188427686691,0.00666828453540802,0.06064199283719063,0.04502581059932709,-0.017003430053591728,-0.012156255543231964,0.04085694998502731,0.008720798417925835,-0.05034293979406357,0.011318114586174488,-0.01428096555173397,0.017313901335000992,-0.007666612975299358,-0.04866920784115791,0.023989636451005936,0.03289658948779106,0.03132401034235954,-0.04046831279993057,-0.05759315565228462,-0.0009234237368218601,-0.01835041120648384,0.056596290320158005,0.0066599114798009396,-0.004133146721869707,0.0037382659502327442,-0.08266342431306839,0.04027584567666054,0.016113881021738052,-0.005770149640738964,0.023762013763189316,-0.023301677778363228,0.05616886541247368,-0.05825719237327576,-0.009242548607289791,-0.029715389013290405,0.005849103443324566,-0.06779317557811737,0.024903129786252975,-0.05538642406463623,0.022411758080124855,0.01858888566493988,0.0025878273881971836,-0.005993918515741825,0.022368626669049263,0.038006026297807693,-0.016146212816238403,0.00746223796159029,-0.06546131521463394,0.02302759699523449,0.0223768912255764,-0.06008141115307808
FE23A109,0.007264924235641956,-0.002167500089854002,-0.04387838765978813,0.005058884155005217,-0.017672967165708542,-0.002143454272300005,-0.004779425449669361,-0.015855837613344193,-0.01873893104493618,-0.018851902335882187,0.016794228926301003,-0.07651819288730621,-0.09229157865047455,-0.07701306790113449,0.05106230825185776,-0.0018148040398955345,0.022002916783094406,-0.022738400846719742,-0.06324947625398636,-0.021257581189274788,-0.0020268126390874386,-0.024355018511414528,0.018453042954206467,0.042018745094537735,-0.04812123626470566,0.0855570137500763,0.05355412885546684,-0.03149201348423958,-0.0030937984120100737,0.023318758234381676,-0.03952070325613022,0.056873906403779984,-0.037931349128484726,0.008483762852847576,-0.020854856818914413,0.05533507466316223,-0.0018544163322076201,-0.025171931833028793,0.011069150641560555,0.009533597156405449,0.015792962163686752,-0.04214676469564438,-0.07264645397663116,-0.049058154225349426,0.048875920474529266,-0.054154831916093826,-0.01492511760443449,-0.013777866959571838,0.010389640927314758,0.05105971172451973,0.0415327250957489,0.033254608511924744,-0.026193847879767418,0.03642895072698593,-0.0626644641160965,0.020313607528805733,-0.006707913242280483,-0.049021657556295395,0.051899977028369904,0.060505617409944534,0.0274859219789505,-0.015738192945718765,-0.004758915863931179,0.00856305193156004,0.0463859997689724,0.02077706716954708,0.0074566081166267395,-0.012032171711325645,-0.011925722472369671,-0.0003566159575711936,-0.027597788721323013,0.021456504240632057,0.01034675445407629,-0.004971278831362724,-0.02494526281952858,0.05119745060801506,-0.04998152703046799,-0.0439302921295166,-0.013005854561924934,0.06841015815734863,0.035859450697898865,-0.004074181895703077,0.00869201123714447,0.04313818737864494,0.0849287360906601,-0.03878737986087799,-0.007617132272571325,0.05408409982919693,0.07530469447374344,0.010003814473748207,-0.019543621689081192,-0.01623145118355751,0.0075554074719548225,0.014414946548640728,0.00797109492123127,0.0045141372829675674,-0.061666883528232574,-0.006391031201928854,-0.005412434693425894,-0.0396677628159523,0.031008999794721603,-0.07061737775802612,-0.03714115545153618,0.03323160484433174,0.02604137733578682,0.04460127651691437,0.013244000263512135,-0.0436963252723217,-0.012645319104194641,-0.08872094005346298,0.00836626160889864,-0.005827154032886028,-0.007156524807214737,-0.010320553556084633,-0.006964314728975296,-0.028194423764944077,-0.07433721423149109,-0.10253284126520157,-0.012671475298702717,0.03561472147703171,0.017667993903160095,-0.04796399176120758,-0.04970591515302658,0.03679452836513519,0.0033049278426915407,-0.10586758702993393,-0.04687046259641647,-0.0022631504107266665,0.003650884609669447,-0.005747334100306034,-0.029557188972830772,-0.03342050686478615,-0.009474266320466995,-0.05516630411148071,-0.030141526833176613,0.006420736201107502,0.02294084243476391,-0.05610261112451553,-0.04688754305243492,0.07109954208135605,0.05338091775774956,0.042297691106796265,-0.04104340076446533,0.034390415996313095,-0.0220049861818552,-0.03753328695893288,-0.00012649568088818341,0.011177337728440762,-0.06851056218147278,0.04498758167028427,-0.07601570338010788,0.06418416649103165,0.012438060715794563,-0.03799062222242355,0.027166415005922318,0.014257046394050121,0.02190777100622654,0.030032401904463768,0.037165094166994095,-0.059212278574705124,0.10593229532241821,-0.03237064555287361,-0.02288978174328804,-0.02960948273539543,0.011495202779769897,-0.047958940267562866,0.01520558912307024,0.021856313571333885,0.04689336568117142,-0.04936155676841736,-0.0027191941626369953,0.0012017094995826483,-0.0332363024353981,-0.033188894391059875,-0.016318481415510178,0.057520121335983276,-0.04602040722966194,-0.062468428164720535,-0.022861894220113754,-0.031154528260231018,-0.011113970540463924,-0.022594435140490532,-0.03175107017159462,-0.0009807553142309189,-0.021645067259669304,-0.014574237167835236,-0.05980963632464409,0.01256860513240099,-0.06911817938089371,0.03408171981573105,-0.06372955441474915,-0.03063022531569004,0.054491110146045685,-0.03805430606007576,0.015295888297259808,-0.06043260172009468,0.03172466903924942,-0.010492418892681599,-0.008631270378828049,-0.008524029515683651,-0.0387379415333271,0.008047188632190228,-0.0052301581017673016,0.025507446378469467,-0.004802335985004902,-0.027186091989278793,0.051755331456661224,-0.04886063188314438,-0.023868974298238754,0.07218579202890396,0.03551963344216347,0.00936990324407816,-0.031969502568244934,-0.031227264553308487,-0.04152258113026619,-0.012677311897277832,-0.05301649123430252,0.07257738709449768,-0.001116001047194004,0.023434819653630257,0.0349414199590683,-0.016573917120695114,-0.014313995838165283,0.013949280604720116,0.03145822137594223,-0.05324225500226021,-0.041856009513139725,0.009539532475173473,-0.050895582884550095,0.011143581941723824,0.008833022788167,-0.010302422568202019,-0.06069610267877579,-0.03249410539865494,0.023461462929844856,-0.027127986773848534,-0.003310244530439377,0.012986545450985432,-0.08222948014736176,-0.03647978603839874,0.05050542950630188,-0.01905439980328083,-0.023718785494565964,0.010128594003617764,0.05837478116154671,0.07104364037513733,-0.03805644065141678,0.021292151883244514,0.05294683575630188,-0.06543780863285065,-0.01562899723649025,0.05369154363870621,0.011418838985264301,-0.033729832619428635,-0.007803353480994701,-0.06568924337625504,-0.019292114302515984,0.01667426899075508,0.015778757631778717,0.040638647973537445,0.10548283904790878,-0.046113260090351105,0.012493694201111794,-0.009642085060477257,0.033284418284893036,0.019719678908586502,0.014815310947597027,-0.012239202857017517,-0.07487625628709793,-0.06031189113855362,-0.01069931872189045,-0.022717172279953957,-0.0007502821972593665,-0.030344989150762558,0.057800162583589554,0.053460706025362015,-0.04623475670814514,-0.005030416883528233,-0.08040088415145874,-0.002021635416895151,-0.03396428003907204,0.0019097879994660616,-0.0013990019215270877,0.012031947262585163,-0.07177285104990005,0.018137743696570396,0.03087512217462063,0.05657265707850456,-0.002786043332889676,-0.045089446008205414,-0.012981874868273735,-0.022161614149808884,0.0246976837515831,-0.06462272256612778,-0.05160431191325188,0.013082044199109077,0.027185583487153053,0.007330221589654684,0.002882571192458272,0.017264986410737038,0.021024612709879875,-0.04686259850859642,-0.010968244634568691,-0.0536511167883873,-0.03598043695092201,-0.049291834235191345,0.032422490417957306,0.013697849586606026,0.029000651091337204,-0.019559193402528763,-0.001987007213756442,-0.08319456875324249,0.0004183778655715287,-0.08530192077159882,-0.003303943667560816,0.014105154201388359,-0.03484853357076645,0.025152165442705154,0.003694071201607585,-0.009233769029378891,-0.014011452905833721,0.005720514804124832,0.016596943140029907,0.0014072334161028266,0.01953602395951748,-0.0727701410651207,0.017273057252168655,0.06136845424771309,0.016524268314242363,0.08059387654066086,0.06576736271381378,0.008616261184215546,-0.018167607486248016,0.08181425929069519,0.021381868049502373,0.0006162161007523537,-0.05393139272928238,-0.011613240465521812,0.03781399875879288,-0.02149934321641922,0.0064781541004776955,-0.04739341512322426,0.0240330770611763,-0.011490928940474987,0.03820670768618584,-0.040119946002960205,0.028745055198669434,0.020360995084047318,-0.008376273326575756,0.00030455196974799037,-0.015601905062794685,-0.021686244755983353,-0.05227018520236015,-0.07324828952550888,-0.02007676288485527,0.08925731480121613,-0.025221750140190125,-0.05471942573785782,-0.030682682991027832,0.005487701389938593,-0.025240633636713028,0.019543932750821114,-0.033160500228405,-0.022863803431391716,-0.0012338596861809492,-0.011031609028577805,0.11194299161434174,0.017945988103747368,-0.004137010313570499,-0.05170539766550064,0.01787733845412731,0.01674574241042137,0.04869339242577553,0.02671768143773079,-0.009123777970671654,0.006787991616874933,0.026867225766181946,0.01676413044333458,-0.0640074834227562,-0.05612136051058769,-0.014627618715167046,-0.008546272292733192,-0.04548042267560959,0.00933530367910862,0.01036575622856617,-0.02814927138388157,-0.00494693499058485,0.03334583342075348,-0.02593279257416725,0.0384470671415329,0.014405871741473675,-0.009591599926352501,-0.08168482035398483,-0.06542876362800598,-0.054820992052555084,-0.052756886929273605,-0.036715272814035416,-0.030872005969285965,-0.04859548434615135,-0.04301705211400986,-0.05940760299563408,0.004030529409646988,-0.0358995757997036,0.029442792758345604,-0.05022900551557541,0.035904012620449066,0.032579801976680756,-0.06406258791685104,0.0002370301663177088,-0.0005828804569318891,0.035859040915966034,-0.020255353301763535,0.01398411113768816,-0.010770818218588829,-0.03297483175992966,0.01423703134059906,-0.021749895066022873,0.0027861441485583782,-0.06356555223464966,0.002768500940874219,0.02631871961057186,-0.007733146194368601,0.012221475131809711,-0.0313660204410553,-0.01656772568821907,0.02583141066133976,0.000617839046753943,-0.011082333512604237,0.06120719760656357,-0.03440781682729721,-0.018412798643112183,-0.04904501885175705,0.04134117811918259,-0.05991179868578911,-0.07569121569395065,-0.08582590520381927,-0.003288380801677704,0.02324335277080536,-0.016050875186920166,0.0588524229824543,-0.0766313374042511,0.07590096443891525,-0.07943613827228546,0.04000632092356682,-0.05662093684077263,0.03434760123491287,0.0035547963343560696,0.04207368940114975,-0.017242345958948135,-0.03563930466771126,0.018205082044005394,-0.033459343016147614,0.058275382965803146,-0.024280887097120285,-0.03689132258296013,0.01798154041171074,-0.00029894840554334223,0.08886738866567612,0.024017278105020523,0.07042770087718964,-0.001784968888387084,0.011520450934767723,0.025985633954405785,0.01962283067405224,0.04729472100734711,-0.0020045326091349125,0.01586928963661194,-0.029459381476044655,0.014964768663048744,-0.06722436100244522,-0.029243430122733116,-0.00927002914249897,-0.005157147534191608,0.018981322646141052,-0.005431593395769596,0.039314500987529755,0.026647895574569702,-0.016359221190214157,0.0026629986241459846,-0.06683269888162613,0.0972762256860733,-0.004767860285937786,-0.0029803949873894453,-0.0011416968191042542,0.01653417944908142,0.02604999579489231,-0.042877037078142166,-0.00276741455309093,0.00710109481588006,-0.03048502281308174,0.02374221384525299,-0.002086199354380369,0.049098141491413116,-0.002987589919939637,0.005171162076294422,0.009224843233823776,-0.022883787751197815,-0.06376194953918457,0.048075027763843536,-0.05682770535349846,-0.02961139939725399,0.019019637256860733,-0.015937060117721558,0.03278262913227081,0.04906434565782547,0.0018299694638699293,0.01727196015417576,0.021951889619231224,-0.0038412127178162336,-0.042052771896123886,0.06950300931930542,0.01044622715562582
FE21A328,0.010686945170164108,0.022907059639692307,-0.04722733423113823,0.07531534135341644,0.006827046163380146,0.05810774490237236,-0.013085393235087395,-0.024639660492539406,-0.07005510479211807,0.030903827399015427,-0.019956137984991074,-0.015420565381646156,-0.008334810845553875,-0.00355011154897511,0.032344527542591095,-0.02525700256228447,0.0025266227312386036,0.0083850659430027,-0.007398916874080896,-0.06269241869449615,-0.04914279282093048,0.011282299645245075,0.04106320068240166,0.0626196414232254,0.022711221128702164,0.07370834052562714,0.03771777078509331,-0.03490205481648445,0.012098429724574089,-0.0013940145727247,-0.042588286101818085,0.029985347762703896,-0.05621390417218208,0.005987141281366348,-0.05452324077486992,0.03962015360593796,0.016273126006126404,-0.018489349633455276,-0.07017263025045395,0.009506307542324066,-0.012335121631622314,-0.007575517985969782,-0.0003260030352976173,-0.006167913321405649,0.05871187523007393,0.020067062228918076,0.019693732261657715,0.029681185260415077,-0.032763801515102386,0.014887201599776745,0.05922325327992439,-0.0018418465042486787,-0.0019584991969168186,-0.017710233107209206,-0.07764206826686859,0.00028230194584466517,-0.009184634312987328,0.0033229838591068983,0.044923603534698486,-0.00012215277820359915,0.04246118292212486,0.015653252601623535,0.007620961870998144,-0.08198019862174988,-0.0035646476317197084,0.03640338033437729,-0.010522507131099701,0.014661881141364574,-0.017490636557340622,0.09127180278301239,0.04064337909221649,0.07852473109960556,-0.005443262867629528,0.04745568335056305,0.02698948048055172,-0.007261906750500202,-0.06723987311124802,-0.005133865866810083,-0.019581297412514687,0.02696855738759041,0.08695225417613983,0.03486250713467598,0.008721327409148216,0.0190900731831789,-0.026415009051561356,0.008456978015601635,0.0050112465396523476,0.022703900933265686,0.015980549156665802,-0.002748604631051421,0.029316037893295288,0.030060410499572754,0.010840488597750664,-0.001915882108733058,0.09081015735864639,-0.016009796410799026,0.003610254032537341,-0.012438403442502022,-0.0420350544154644,0.025003531947731972,0.0494215153157711,-0.057218410074710846,-0.010680945590138435,-0.01675068773329258,-0.07872126996517181,0.03890614956617355,-0.013582289218902588,-0.05060858651995659,-0.07840735465288162,-0.038242317736148834,0.02071644738316536,-0.03332773596048355,-0.02148248441517353,-0.0026575839146971703,0.006758397910743952,-0.06491567194461823,0.0006387181347236037,-0.05141228437423706,-0.04880508780479431,0.04585215449333191,0.00952114351093769,0.048940159380435944,-0.017128389328718185,-0.05278056859970093,-0.030111540108919144,-0.10115908086299896,-0.034777868539094925,0.08196933567523956,0.05292012169957161,-0.01696048118174076,0.022847725078463554,-0.07726830244064331,0.018252065405249596,0.020042236894369125,-0.10001996904611588,-0.0036620188038796186,0.015047619119286537,-0.013080713339149952,-0.019648587331175804,0.11224384605884552,0.011218475177884102,0.04237092658877373,0.03420938923954964,0.008167726919054985,0.04882558062672615,0.0050613307394087315,0.024462321773171425,-0.027243172749876976,0.03892453759908676,-0.02204953506588936,-0.030510762706398964,0.0213363878428936,-0.0438854843378067,0.03398636728525162,0.03175386041402817,-0.05921822786331177,-0.02135526016354561,0.015162058174610138,0.03200878947973251,-0.05271385982632637,0.05271342396736145,0.008725525811314583,-0.010635367594659328,0.06186526268720627,0.02187909558415413,-0.02530045434832573,-0.03851467743515968,-0.05698355287313461,-0.008250929415225983,-0.01618470810353756,-0.008545425720512867,0.03332509472966194,-0.007929867133498192,0.025932883843779564,0.020260639488697052,0.04337237402796745,0.06316296011209488,0.023037245497107506,-0.0507289357483387,0.009053950197994709,-0.04655265435576439,-0.040095340460538864,-0.04687592759728432,0.015677429735660553,-0.0073736198246479034,-0.00739636505022645,0.03600028529763222,0.023122431710362434,0.027886290103197098,0.032835349440574646,0.01417137123644352,-0.01639697141945362,0.11188044399023056,-0.01115046814084053,-0.013233115896582603,-0.024194402620196342,0.0002973928931169212,-0.022069504484534264,-0.03454010561108589,0.048073869198560715,-0.0039093755185604095,-0.002116753254085779,-0.028409088030457497,0.04659789055585861,0.04273747652769089,0.0017374347662553191,0.06426189839839935,-0.033986084163188934,-0.011585784144699574,0.005243733059614897,-0.008004764094948769,-0.02734561823308468,-0.027658959850668907,0.06549131125211716,0.03861791640520096,0.04378708451986313,-0.03563344106078148,0.00711614778265357,-0.02393822744488716,0.04226216301321983,-0.016973594203591347,-0.07569411396980286,-0.059609901160001755,-0.010003487579524517,0.0011464357376098633,0.000998655566945672,-0.03460477292537689,0.01334906555712223,-0.020319858565926552,0.03291361406445503,0.02351660095155239,0.06170208379626274,-0.013874052092432976,-0.05787917226552963,-0.030212145298719406,-0.003601627890020609,-0.010785408318042755,0.022671163082122803,-0.010195345617830753,-0.04488974064588547,-0.00790569931268692,0.009277500212192535,-0.03780026361346245,0.014252111315727234,0.05988723039627075,0.04528059810400009,0.02574864588677883,0.04498938471078873,0.05396682024002075,0.07425408810377121,-0.03262579068541527,0.02413243055343628,-0.03385521471500397,-0.022789204493165016,-0.0022552255541086197,-0.01476370356976986,-0.001317825517617166,0.023128721863031387,0.007556460797786713,0.04817270487546921,0.015309648588299751,0.0010718062985688448,-0.004320668522268534,-0.06274954229593277,-0.008996399119496346,-0.03893035277724266,-0.010053408332169056,-0.022464487701654434,-0.011096878908574581,-0.022985173389315605,0.03029155358672142,-0.017661171033978462,0.0018285957630723715,0.030860906466841698,0.0025225202552974224,-0.03084271028637886,-0.0015675670001655817,0.026633355766534805,0.02346254326403141,0.01782168634235859,0.0526973120868206,-0.03316587954759598,-0.053737521171569824,-0.06674233824014664,-0.036614708602428436,-0.015626128762960434,-0.034448541700839996,0.006338057108223438,-0.044158320873975754,-0.0441388301551342,-0.004011300392448902,-0.024018937721848488,0.01704421639442444,-0.005743010900914669,-0.03777969628572464,-0.08444654196500778,-0.021291522309184074,0.06600894778966904,0.008816764689981937,-0.0020753187127411366,0.06509245932102203,-0.05166661739349365,0.044462524354457855,-0.027544528245925903,0.0681803971529007,-0.02388262376189232,-0.005884293466806412,0.010730477049946785,0.012285141274333,0.07255350053310394,0.017768878489732742,0.038358476012945175,0.0005563771119341254,0.03832989186048508,0.0439390130341053,0.009336331859230995,-0.03498232364654541,0.002160650212317705,-0.026604657992720604,0.030014019459486008,0.10170509666204453,-0.026474609971046448,-0.0241628959774971,0.00807429663836956,-0.0024823076091706753,0.0028925053775310516,-0.0012759113451465964,0.007261410355567932,0.02105548419058323,0.019438885152339935,0.04042840749025345,-0.010312117636203766,-0.011478978209197521,0.03903067857027054,-0.026283498853445053,-0.011872964911162853,-0.056286267936229706,-0.0058715129271149635,0.042925186455249786,-0.008431659080088139,-0.008461038582026958,0.04126327484846115,0.05555777996778488,-0.019371535629034042,0.03911687806248665,0.0009491574019193649,-0.04564986377954483,0.04281068593263626,0.05198599025607109,0.010891644284129143,-0.03256633132696152,-0.02654150128364563,-0.07367949932813644,-0.014753912575542927,-0.05590756610035896,0.049035489559173584,0.03240127116441727,-0.0023912801407277584,0.022002944722771645,-0.015475990250706673,0.007577231619507074,-0.018686512485146523,-0.039578136056661606,-0.010109135881066322,-0.0404767245054245,-0.028224248439073563,0.067607581615448,-0.0034626624546945095,-0.017791301012039185,-0.05677239969372749,0.018923331052064896,0.008101003244519234,0.010632874444127083,0.013244125060737133,0.023767154663801193,0.04501340165734291,-0.019983133301138878,0.020347246900200844,-0.05768261104822159,-0.058199673891067505,0.0003458615392446518,-0.04069536179304123,-0.031270138919353485,0.010528944432735443,-0.016723480075597763,-0.021088385954499245,-0.07535555213689804,-0.018990952521562576,-0.005668201483786106,-0.01812196895480156,0.009558649733662605,0.01155556458979845,0.021248292177915573,-0.03832504153251648,-0.05332912132143974,-0.02957315184175968,0.01719898357987404,0.03508349508047104,-0.018016569316387177,0.04083245247602463,-0.06787554919719696,0.06870356947183609,-0.021315956488251686,0.05139770358800888,-0.018062546849250793,-0.03125958889722824,0.030579175800085068,-0.02350650168955326,0.012670263648033142,0.04961611330509186,0.004955267067998648,-0.023744452744722366,0.03304555267095566,0.05512598156929016,0.07104326784610748,-0.016889382153749466,0.0021895584650337696,0.02566605433821678,-0.04085146635770798,-0.03375084698200226,-0.027235399931669235,-0.006879887077957392,-0.01332795899361372,-0.006627863738685846,-0.027500012889504433,0.039980318397283554,0.07002688944339752,0.021039973944425583,0.030966967344284058,-0.031178468838334084,0.00016924590454436839,0.005380014423280954,-0.0474977008998394,-0.09033332765102386,-0.020393138751387596,0.02459305338561535,-0.028293874114751816,0.002741412492468953,0.03643319755792618,-0.021617624908685684,-0.05920296907424927,0.010187674313783646,-0.05617494508624077,0.07138091325759888,-0.05841274932026863,0.015641644597053528,-0.05352305248379707,0.06512709707021713,0.003246122505515814,-0.0709066390991211,0.01708761788904667,0.03557513281702995,-0.014516422525048256,-0.06074904650449753,0.01573820598423481,0.04954152926802635,0.0012843490112572908,0.078995481133461,0.07243338227272034,0.012325219810009003,-0.026866650208830833,0.029710572212934494,-0.0005388828576542437,0.05980757623910904,0.03961655870079994,-0.03541925549507141,-0.03431249409914017,0.02295714057981968,0.03639739751815796,-0.01985126920044422,0.04394424334168434,-0.008768144063651562,0.033885326236486435,-0.017065946012735367,-0.04826560616493225,-0.009040474891662598,0.08227609843015671,-0.011987777426838875,0.03978303447365761,0.033222511410713196,0.013416114263236523,0.032596465200185776,0.009935283102095127,0.01647445186972618,-0.0037361502181738615,-0.0018119424348697066,-0.10484369099140167,0.035855937749147415,0.022712405771017075,-0.015150746330618858,0.010991455987095833,-0.0206160806119442,0.0016994429752230644,-0.06749468296766281,0.032615404576063156,-0.06273749470710754,-0.0024746882263571024,0.00909618753939867,0.05817369744181633,0.0007563948747701943,0.015804970636963844,0.0016518555348739028,0.04623497650027275,-0.009406337514519691,-0.03333928436040878,0.0663919597864151,-0.004566258750855923,0.023376716300845146,-0.018320027738809586,-0.014955046586692333,0.05174606293439865,-0.018789390102028847
FE21A352,0.04372475668787956,-0.0028816601261496544,-0.02749856747686863,0.05121845752000809,-0.019575484097003937,0.06927934288978577,0.005095330066978931,-0.012475721538066864,-0.10453679412603378,0.033817585557699203,-0.04139947518706322,-0.009369917213916779,-0.017416516318917274,-0.00033103636815212667,0.019535522907972336,-0.07933317124843597,0.005982172209769487,0.009962146170437336,-0.03316352888941765,-0.05928792431950569,-0.04694104567170143,0.02046065777540207,0.0401185043156147,0.05562877655029297,1.3064220183878206e-05,0.07847468554973602,0.029123907908797264,-0.005154597572982311,0.02296178974211216,-0.019920697435736656,-0.015514938160777092,0.02271602302789688,-0.027253523468971252,-0.02637287601828575,-0.04412529617547989,0.0036914232186973095,-0.02422993630170822,-0.013173408806324005,-0.03169329836964607,-0.020253876224160194,-0.0054974122904241085,0.017821012064814568,-0.00428683590143919,-0.030316784977912903,0.06714438647031784,0.02234743721783161,0.0012515939306467772,-0.010881474241614342,-0.004112602211534977,-0.02198871411383152,0.009982832707464695,0.01864551194012165,0.005730494856834412,-0.004610201809555292,-0.07419551908969879,0.0054090297780931,0.007123412098735571,0.0014232058310881257,0.04609787464141846,0.0035322110634297132,0.012430583126842976,0.00891806185245514,0.007406322751194239,-0.06344293057918549,0.018239468336105347,0.028456637635827065,0.01710985228419304,-0.014030632562935352,-0.01357520092278719,0.08717283606529236,0.024787019938230515,0.08602514863014221,0.002826620126143098,0.05344734340906143,0.0042717428877949715,-2.8038490199833177e-05,-0.050755225121974945,-0.03254613280296326,-0.02354850061237812,0.0332275852560997,0.05488482862710953,0.03654405474662781,0.019218673929572105,0.04323318600654602,-0.004915765952318907,0.009610515087842941,0.003548088949173689,-0.0032288047950714827,0.0009181721252389252,-0.025260496884584427,0.01992798037827015,-0.01469613891094923,0.026287082582712173,-0.005795706994831562,0.07221145182847977,-0.004617988597601652,-0.01623694784939289,-0.013419017195701599,-0.006789063103497028,0.015062341466546059,0.043587200343608856,-0.04293879494071007,-0.0007023586658760905,0.0014958499232307076,-0.04491068422794342,0.02964090183377266,-0.024207061156630516,-0.0335567370057106,-0.07402101904153824,-0.05601368099451065,0.01890450343489647,0.0002061689447145909,-0.041891686618328094,-0.0262918621301651,-0.003463695291429758,-0.06997743248939514,-0.018933240324258804,-0.0722794383764267,-0.0218642745167017,0.02231646701693535,-0.005332496017217636,0.0359438881278038,-0.04128916934132576,-0.043008722364902496,-0.027321597561240196,-0.0695851668715477,-0.009333197958767414,0.05578044801950455,0.05049489066004753,-0.025784730911254883,0.010381592437624931,-0.059488046914339066,-0.0037258651573210955,0.05388466268777847,-0.09485496580600739,-0.024201473221182823,0.011251835152506828,-0.007231271825730801,-0.008654812350869179,0.08376450836658478,-0.005407229065895081,0.06052113324403763,0.04626721516251564,0.012006031349301338,0.019137030467391014,-0.001202062121592462,-0.00517268804833293,-0.05955604463815689,0.01608389988541603,0.010507719591259956,-0.027556702494621277,0.02099253609776497,-0.03643352910876274,0.038706790655851364,0.03545001149177551,-0.03383847698569298,-0.015861425548791885,-0.02130955271422863,0.010253401473164558,-0.05631722882390022,0.04217923432588577,0.012295454740524292,-0.008572417311370373,0.03364253044128418,0.007658195681869984,0.00874149240553379,-0.005269081797450781,-0.040450066328048706,-0.010544592514634132,-0.0018172420095652342,-0.022831285372376442,0.028568517416715622,-0.028194356709718704,-0.013757568784058094,-0.00951712392270565,0.04900404438376427,0.042052797973155975,0.0270761139690876,-0.010452626273036003,0.007251425180584192,-0.014977790415287018,-0.06350942701101303,-0.012188632972538471,0.015459303744137287,0.021413583308458328,-0.02091491036117077,0.001141161541454494,-0.017531322315335274,0.043576471507549286,0.007395066320896149,0.010546459816396236,-0.01899857446551323,0.045087236911058426,-0.02671271190047264,-0.00477420212700963,-0.010347177274525166,-0.003097837558016181,-0.049226634204387665,-0.01825348474085331,0.041093356907367706,-0.02238621562719345,0.05123308300971985,-0.061215244233608246,0.01934756152331829,0.016984641551971436,-8.709263056516647e-05,0.0028955568559467793,-0.04064912348985672,-0.00020841062359977514,0.012416277080774307,0.022905271500349045,-0.006838005967438221,-0.03000454604625702,0.04678358510136604,0.015262777917087078,0.047663744539022446,-0.035466983914375305,0.001387057127431035,-0.04122890159487724,0.0396534726023674,0.0034824046306312084,-0.04351145774126053,-0.06416032463312149,0.01036873273551464,-0.02556907758116722,-0.02198980562388897,-0.019637787714600563,0.016830643638968468,0.013834409415721893,-0.005146413575857878,0.03162350505590439,0.054337501525878906,-0.012542873620986938,-0.062328897416591644,-0.03533709794282913,-0.038427963852882385,0.007497010286897421,0.03334838151931763,0.011862136423587799,-0.05072615295648575,0.03586377203464508,-0.010444020852446556,-0.048573583364486694,0.010429566726088524,0.03411036729812622,-0.01363858301192522,0.03221205621957779,0.017987791448831558,0.000806818250566721,0.04549812525510788,0.009893795475363731,0.023694003000855446,-0.018391508609056473,0.004859045147895813,0.02826523780822754,-0.004720763769000769,0.012045521289110184,0.03428191319108009,0.005007925443351269,0.03776272013783455,0.04961394891142845,0.024048078805208206,0.005606147460639477,-0.05043160915374756,0.003313464345410466,-0.021280324086546898,0.002668228233233094,-0.0008523205178789794,0.012432899326086044,-0.026081468909978867,0.03774164989590645,-0.003922632895410061,0.029057085514068604,0.004009440541267395,0.02587098442018032,-0.026534980162978172,-0.004966279026120901,0.02405860461294651,0.031796641647815704,0.009413845837116241,0.07099530845880508,-0.026792382821440697,-0.0719054788351059,-0.05880696699023247,-0.03898538649082184,0.0030538092833012342,-0.016052324324846268,0.023698074743151665,-0.02453092858195305,-0.03531761094927788,-0.01138005219399929,-0.03285408392548561,0.018502121791243553,-0.007984813302755356,-0.013264584355056286,-0.056755803525447845,-0.03400994464755058,0.04837420582771301,-0.018073108047246933,-0.01634623482823372,0.078075110912323,-0.07585661858320236,0.0647924616932869,-0.051062922924757004,0.040178559720516205,-0.03463948145508766,-0.0002866668510250747,-0.010041190311312675,0.009160537272691727,0.06587415188550949,0.013581536710262299,-0.01203218288719654,-0.012411659583449364,0.04704800993204117,0.004362086299806833,0.008975050412118435,-0.05385155230760574,0.006960643921047449,-0.04372292011976242,0.05546389892697334,0.07490215450525284,-0.011392531916499138,0.012492085807025433,-0.006317275110632181,0.005957987159490585,-0.058103881776332855,-0.02021988108754158,-0.04529627412557602,0.003942546434700489,-0.022008903324604034,0.02200184389948845,-0.0118302833288908,0.017716500908136368,0.04244787618517876,0.002163008553907275,-0.024358898401260376,-0.053202878683805466,-0.0018279135692864656,0.01978454366326332,-0.013216668739914894,-0.008104496635496616,0.031602583825588226,0.05545948073267937,-0.03010745905339718,-0.00012412481009960175,0.006406127475202084,-0.01676942966878414,0.0003013811947312206,0.0695585384964943,0.02725094184279442,-0.018151115626096725,-0.029189597815275192,-0.04417996108531952,-0.020954322069883347,-0.03786877542734146,0.04914674162864685,0.0009568335372023284,0.003459873842075467,0.009946996346116066,0.018210943788290024,-0.019617877900600433,-0.010044177062809467,-0.003644082695245743,0.022545205429196358,-0.023340735584497452,-0.012974838726222515,0.08351226150989532,0.009047294966876507,-0.007033736910670996,-0.025154992938041687,0.051520057022571564,-0.0015423826407641172,0.03154030814766884,0.009525703266263008,0.01838759332895279,0.032612599432468414,-0.021253515034914017,0.03512037545442581,-0.03168649971485138,-0.04974406212568283,-0.0025155176408588886,-0.037872157990932465,-0.06088387966156006,0.008547735400497913,-0.01805875077843666,0.015652909874916077,-0.012488313019275665,-0.04404497891664505,0.017184240743517876,0.013106359168887138,-0.002834772225469351,0.02242359332740307,0.0043061464093625546,-0.00764492666348815,-0.03273956850171089,0.03582492843270302,0.007563031278550625,0.012714266777038574,-0.024488555267453194,0.02737213671207428,-0.06587144732475281,0.061231471598148346,-0.03773637115955353,0.06768357753753662,-0.013644267804920673,-0.014841859228909016,-0.0032638877164572477,-0.01969786174595356,-0.02997709810733795,0.02619711123406887,0.0017297316808253527,-0.022425638511776924,0.031336165964603424,0.05090361088514328,0.06975072622299194,-0.0200180783867836,0.015939097851514816,0.022653697058558464,-0.036029212176799774,-0.019478237256407738,-0.035380829125642776,0.007976739667356014,-0.011320006102323532,-0.02042975276708603,-0.010559518821537495,0.004724887665361166,0.05822969600558281,0.012378405779600143,0.034299079328775406,-0.027984973043203354,0.0038694203831255436,0.026655081659555435,-0.031102806329727173,-0.05944054201245308,-0.04173238202929497,0.005969164427369833,-0.03798019886016846,0.04512996971607208,0.08451449871063232,-0.010211741551756859,-0.046649083495140076,0.02459659054875374,-0.0666591003537178,0.028189975768327713,-0.03538946807384491,0.011331277899444103,-0.026576464995741844,0.058880627155303955,-0.02979471907019615,-0.07644523680210114,0.012264816090464592,0.02807794138789177,0.028370743617415428,-0.0647948831319809,0.020989302545785904,0.043658547103405,0.022447647526860237,0.0624568946659565,0.05425126478075981,-0.008211885578930378,-0.0466737374663353,0.03941316902637482,0.013474035076797009,0.038531795144081116,0.042405176907777786,-0.018402433022856712,-0.025866132229566574,0.026306506246328354,0.03744044154882431,-0.03048345074057579,0.03279207646846771,0.0025832378305494785,0.04371208697557449,-0.002367724198848009,-0.011153454892337322,-0.022654829546809196,0.08397296071052551,-0.04490877315402031,0.023230988532304764,0.03953961282968521,0.030845273286104202,0.04601896554231644,0.012191993184387684,0.0014795144088566303,0.01855018176138401,-0.021060753613710403,-0.09238266944885254,0.01632430963218212,0.039580654352903366,0.004277162253856659,-0.0024583744816482067,-0.018844440579414368,0.013707781210541725,-0.061324767768383026,0.009199343621730804,-0.07801288366317749,0.00524386391043663,-0.017407502979040146,0.028150146827101707,0.024281032383441925,0.015933332964777946,0.0002133529633283615,0.02290056087076664,0.00814402662217617,-0.051338084042072296,0.05203353241086006,0.002472873078659177,0.048902515321969986,-0.01129424013197422,-0.021060019731521606,0.0135562215000391,-0.02138216234743595
