UserID,e0,e1,e2,e3,e4,e5,e6,e7,e8,e9,e10,e11,e12,e13,e14,e15,e16,e17,e18,e19,e20,e21,e22,e23,e24,e25,e26,e27,e28,e29,e30,e31,e32,e33,e34,e35,e36,e37,e38,e39,e40,e41,e42,e43,e44,e45,e46,e47,e48,e49,e50,e51,e52,e53,e54,e55,e56,e57,e58,e59,e60,e61,e62,e63,e64,e65,e66,e67,e68,e69,e70,e71,e72,e73,e74,e75,e76,e77,e78,e79,e80,e81,e82,e83,e84,e85,e86,e87,e88,e89,e90,e91,e92,e93,e94,e95,e96,e97,e98,e99,e100,e101,e102,e103,e104,e105,e106,e107,e108,e109,e110,e111,e112,e113,e114,e115,e116,e117,e118,e119,e120,e121,e122,e123,e124,e125,e126,e127,e128,e129,e130,e131,e132,e133,e134,e135,e136,e137,e138,e139,e140,e141,e142,e143,e144,e145,e146,e147,e148,e149,e150,e151,e152,e153,e154,e155,e156,e157,e158,e159,e160,e161,e162,e163,e164,e165,e166,e167,e168,e169,e170,e171,e172,e173,e174,e175,e176,e177,e178,e179,e180,e181,e182,e183,e184,e185,e186,e187,e188,e189,e190,e191,e192,e193,e194,e195,e196,e197,e198,e199,e200,e201,e202,e203,e204,e205,e206,e207,e208,e209,e210,e211,e212,e213,e214,e215,e216,e217,e218,e219,e220,e221,e222,e223,e224,e225,e226,e227,e228,e229,e230,e231,e232,e233,e234,e235,e236,e237,e238,e239,e240,e241,e242,e243,e244,e245,e246,e247,e248,e249,e250,e251,e252,e253,e254,e255,e256,e257,e258,e259,e260,e261,e262,e263,e264,e265,e266,e267,e268,e269,e270,e271,e272,e273,e274,e275,e276,e277,e278,e279,e280,e281,e282,e283,e284,e285,e286,e287,e288,e289,e290,e291,e292,e293,e294,e295,e296,e297,e298,e299,e300,e301,e302,e303,e304,e305,e306,e307,e308,e309,e310,e311,e312,e313,e314,e315,e316,e317,e318,e319,e320,e321,e322,e323,e324,e325,e326,e327,e328,e329,e330,e331,e332,e333,e334,e335,e336,e337,e338,e339,e340,e341,e342,e343,e344,e345,e346,e347,e348,e349,e350,e351,e352,e353,e354,e355,e356,e357,e358,e359,e360,e361,e362,e363,e364,e365,e366,e367,e368,e369,e370,e371,e372,e373,e374,e375,e376,e377,e378,e379,e380,e381,e382,e383,e384,e385,e386,e387,e388,e389,e390,e391,e392,e393,e394,e395,e396,e397,e398,e399,e400,e401,e402,e403,e404,e405,e406,e407,e408,e409,e410,e411,e412,e413,e414,e415,e416,e417,e418,e419,e420,e421,e422,e423,e424,e425,e426,e427,e428,e429,e430,e431,e432,e433,e434,e435,e436,e437,e438,e439,e440,e441,e442,e443,e444,e445,e446,e447,e448,e449,e450,e451,e452,e453,e454,e455,e456,e457,e458,e459,e460,e461,e462,e463,e464,e465,e466,e467,e468,e469,e470,e471,e472,e473,e474,e475,e476,e477,e478,e479,e480,e481,e482,e483,e484,e485,e486,e487,e488,e489,e490,e491,e492,e493,e494,e495,e496,e497,e498,e499,e500,e501,e502,e503,e504,e505,e506,e507,e508,e509,e510,e511
FE21A160,0.012618358246982098,0.07983598113059998,-0.01075963955372572,-0.015364514663815498,0.04556994140148163,-0.08236782252788544,0.022437555715441704,-0.01345005352050066,0.00017528911121189594,-0.0027899881824851036,-0.018330810591578484,-0.055981434881687164,-0.059333521872758865,-0.005342018324881792,0.021481472998857498,-0.0008862597751431167,0.01953163929283619,-0.036539264023303986,-0.07420311868190765,-0.01870211772620678,0.030133217573165894,-0.0018098546424880624,-0.00022398885630536824,0.0634135901927948,-0.013406097888946533,0.012030616402626038,0.0231911800801754,-0.04401889443397522,0.058767884969711304,-0.025165516883134842,-0.1005684956908226,-0.0037728261668235064,-0.03461500257253647,0.0018725886475294828,0.02077004499733448,0.027860989794135094,-0.03526478260755539,-0.057026248425245285,-0.02566012740135193,0.020841900259256363,0.0009437805856578052,-0.006671194918453693,-0.011374501511454582,-0.00817496795207262,0.008345596492290497,0.035686615854501724,-0.04809416085481644,0.0549173541367054,-0.06686529517173767,0.09727276861667633,0.038320742547512054,-0.03014429844915867,-0.0011345380917191505,0.008745862171053886,0.0024401885457336903,-0.026051249355077744,-0.015753954648971558,-0.042686719447374344,0.05263180658221245,-0.015806887298822403,0.05104488879442215,0.008944189175963402,0.033125005662441254,-0.004144077189266682,0.007153092883527279,-0.0426815040409565,-0.037284065037965775,0.04994593933224678,0.0018198213074356318,0.045996200293302536,-0.02273864671587944,0.04154786095023155,-0.051290113478899,0.03395054489374161,0.05386228486895561,-0.020401183515787125,-0.040864624083042145,0.010770102962851524,0.001841824734583497,0.060065608471632004,0.06349782645702362,0.019350510090589523,-0.06475766748189926,-0.0005135691026225686,-0.008092282339930534,-0.033691633492708206,0.023104537278413773,-0.010946223512291908,0.026830341666936874,-0.027607697993516922,0.0507836639881134,0.004563120659440756,0.037440571933984756,-0.0521586649119854,0.005112551152706146,0.029870277270674706,-0.013705706223845482,0.037602268159389496,-0.0025568772107362747,-0.051121316850185394,0.02419316954910755,-0.029850628226995468,-0.07475513964891434,0.03331882134079933,-0.06929640471935272,0.01757841184735298,0.02419290877878666,0.014731213450431824,-0.04660401493310928,-0.032547712326049805,0.051384419202804565,-0.04209583252668381,0.060567378997802734,-0.010397078469395638,0.027766089886426926,-0.07669974863529205,-0.015142652206122875,-0.0534285232424736,-0.06995955854654312,-0.018553761765360832,0.023028891533613205,0.09156373888254166,-0.0476856604218483,-0.050133608281612396,0.016583964228630066,-0.04511936381459236,0.021034805104136467,-0.0372370183467865,-0.0012062545865774155,0.06596307456493378,-0.06357333809137344,-0.027921676635742188,0.005579984746873379,-0.04419206827878952,-0.04265225678682327,-0.05516958236694336,0.030335888266563416,-0.009719419293105602,-0.023354170843958855,0.08488809317350388,0.04845232889056206,0.02922101877629757,-0.0025150736328214407,0.0015645340317860246,0.008200470358133316,0.01871386170387268,0.022876489907503128,0.013089838437736034,-0.07418958842754364,-0.05046212673187256,-0.04296112060546875,-0.0018250340363010764,-0.1010090559720993,-0.023200623691082,0.02278541959822178,-0.049057457596063614,-0.09900149703025818,0.028493773192167282,-0.0022276868112385273,-0.003165286732837558,0.08969573676586151,-0.03853362053632736,0.03433297201991081,0.040736932307481766,-0.033606454730033875,0.022203190252184868,0.0189021285623312,0.036969754844903946,-0.04778927192091942,-0.05113384872674942,-0.008002487011253834,-0.03926504775881767,0.03802236542105675,-0.03256835788488388,0.046594057232141495,0.08274873346090317,-0.005569119937717915,0.012120390310883522,-0.03569764643907547,-0.022318769246339798,0.007251242641359568,-0.10102252662181854,-0.053881265223026276,-0.04054557904601097,0.005883407313376665,0.011311010457575321,-0.06890727579593658,-0.0399068221449852,-0.006643778644502163,0.07322602719068527,-0.018842920660972595,-0.01357774157077074,0.08969052881002426,-0.0443994477391243,0.0057174889370799065,-0.06064465641975403,-0.025364553555846214,-0.04605327546596527,-0.0718403235077858,-0.07168217748403549,-0.0247813630849123,-0.029494797810912132,0.023986881598830223,-0.017597828060388565,0.024367567151784897,-0.034843239933252335,0.06387702375650406,-0.04301438853144646,0.005341644398868084,0.0604381337761879,0.05842836573719978,0.02887381613254547,-0.022711358964443207,-0.034065477550029755,0.015194190666079521,0.01425161398947239,-0.023002952337265015,-0.010442215017974377,-0.07706108689308167,0.01189031545072794,-0.021749407052993774,-0.028538957238197327,-0.0672263577580452,0.031230470165610313,0.02332642301917076,0.000991073320619762,0.0028383643366396427,0.034837134182453156,-0.04987786337733269,-0.024538006633520126,-0.03841914236545563,-0.014206783846020699,-0.03904563933610916,-0.08429639786481857,-0.004324091132730246,0.009381822310388088,-0.03357511758804321,0.03736734017729759,0.011667555198073387,0.02775757387280464,0.04839461296796799,-0.025432715192437172,-0.07453025132417679,-0.0012282624375075102,0.04544666036963463,0.04360123723745346,0.051662445068359375,-0.006578512489795685,0.047925155609846115,-0.03625309094786644,-0.03410303220152855,0.0742875188589096,-0.03915723040699959,-0.05655263736844063,0.01457358617335558,-0.034920040518045425,-0.05839597061276436,0.05244830250740051,-0.06607431918382645,0.06312818825244904,0.026227619498968124,-0.015290903858840466,0.002626385074108839,-0.0666268989443779,0.007548868656158447,-0.0121205635368824,-0.030701428651809692,0.028330573812127113,-0.029967328533530235,-0.07514210045337677,0.05336817353963852,0.003045475808903575,0.03819175064563751,0.006243419833481312,0.037562303245067596,0.009025026112794876,0.048159174621105194,0.05551953241229057,0.046519532799720764,-0.012365860864520073,-0.0009839050471782684,-0.01154275145381689,0.027427995577454567,-0.0447101891040802,-0.004760067909955978,0.006784296128898859,0.03363553434610367,0.046342842280864716,-0.04608624428510666,-0.01498582772910595,-0.07359553128480911,-0.02369064651429653,0.03892022371292114,-0.023010525852441788,0.01220202911645174,-0.028423253446817398,-0.03460144251585007,-0.007159501314163208,0.0005615510162897408,-0.03577473387122154,0.04807503893971443,-0.03591546416282654,-0.00019810507365036756,-0.020527154207229614,0.030208870768547058,0.018721332773566246,0.07618656009435654,-0.08737362921237946,0.05925517529249191,0.05977582931518555,-0.032549403607845306,0.010075449012219906,0.04762726277112961,0.05181162804365158,0.05748707801103592,-0.04465233534574509,-0.0586295947432518,0.03858482092618942,-0.04030397906899452,-0.001858595060184598,-0.011368314735591412,0.03791380673646927,-0.01593174785375595,-0.006785432808101177,-0.014390644617378712,-0.06120268255472183,-0.04386439174413681,0.058957457542419434,-0.06422445923089981,0.022855859249830246,0.0001828582026064396,0.02148454263806343,-0.034850578755140305,0.0857444554567337,-0.05097449943423271,-0.05023892596364021,-0.07086997479200363,-0.029844233766198158,0.034615784883499146,0.024312544614076614,-0.002784325275570154,0.016156068071722984,0.02673577331006527,0.004584469832479954,0.064503513276577,-0.007517061196267605,-0.03454228490591049,0.03294543921947479,0.01473525632172823,-0.028857801109552383,-0.03743111342191696,-0.04260077327489853,-5.963109288131818e-05,-0.028344180434942245,-0.10003544390201569,0.07594380527734756,0.008145582862198353,-0.029945682734251022,0.04256360977888107,-0.01735593006014824,-0.00045613787369802594,0.0004400242178235203,-0.022701367735862732,0.04481728747487068,-0.035409171134233475,0.012286387383937836,0.018307093530893326,0.015144556760787964,0.023017829284071922,-0.0814952701330185,0.02269650436937809,-0.0006443938473239541,0.02778181992471218,0.0196316409856081,-0.006589139811694622,0.1034117192029953,-0.02745014987885952,-0.029926205053925514,-0.10419265925884247,0.004384445957839489,0.03215529024600983,-0.021675128489732742,-0.018482016399502754,0.036910366266965866,0.04246450215578079,0.00951182097196579,-0.009313153102993965,0.07559013366699219,-0.011408178135752678,0.008131762966513634,0.023825615644454956,0.018092196434736252,-0.027620380744338036,0.04656016081571579,-0.09507530182600021,-0.07651706784963608,0.021140532568097115,0.03262094408273697,-0.004069437738507986,-0.0154936034232378,-0.043768368661403656,0.0442863330245018,-0.00028528348775580525,0.00880841352045536,-0.028619443997740746,0.011656016111373901,-0.030867457389831543,-0.06176416203379631,0.027971643954515457,0.03888445347547531,-0.01108675729483366,0.04872216656804085,-0.06641660630702972,-0.00016612729814369231,0.016695285215973854,-0.03438999131321907,0.0023934345226734877,0.045984648168087006,-0.007166693918406963,-0.044615644961595535,-0.05573965981602669,-0.005784342996776104,0.007962077856063843,-0.06204160302877426,0.0037218318320810795,0.029169395565986633,0.06875234097242355,-0.05161639302968979,0.014851534739136696,-0.015527794137597084,-0.05352509021759033,0.0004204772412776947,-0.0021649098489433527,-0.08539800345897675,0.006340311374515295,-0.03603937476873398,-0.038311220705509186,-0.005376113578677177,0.050108522176742554,0.06034599989652634,-0.021244656294584274,0.013435648754239082,-0.04503238573670387,0.04572227597236633,-0.0638175755739212,0.042899273335933685,0.009593227878212929,0.053968243300914764,0.005737608764320612,-0.05823735520243645,-0.03316601738333702,-0.07474075257778168,-0.005389156751334667,-0.06239927560091019,-0.05300881713628769,0.040898073464632034,0.038309190422296524,0.01680159941315651,0.012743299826979637,-0.01005019061267376,0.02512763999402523,0.01920536532998085,0.012484627775847912,0.031733524054288864,0.04137761518359184,-0.0007795203709974885,0.03999347984790802,-0.02016555704176426,0.0024704155512154102,-0.006472090724855661,0.021040070801973343,0.013255263678729534,0.013613681308925152,-0.019740253686904907,-0.03544209524989128,0.0720057487487793,0.06650009006261826,0.05259285494685173,0.018075983971357346,-0.041035305708646774,0.0293313916772604,0.03946009278297424,-0.016123132780194283,0.03967383876442909,-0.012610343284904957,-0.03331749886274338,-0.022042470052838326,0.026755625382065773,0.033642373979091644,-0.02031278796494007,0.022560320794582367,-0.04226373881101608,0.06084152311086655,-0.08823292702436447,0.028590122237801552,-0.003615131601691246,-0.013447685167193413,-0.00942250620573759,0.026363540440797806,-0.04291093721985817,-0.033388372510671616,0.009949143044650555,0.027566615492105484,-0.05531412363052368,0.012742686085402966,0.10650476068258286,-0.0015946464845910668,0.011217718943953514,-0.020403120666742325,-0.08214063942432404,0.050836898386478424,-0.03702535107731819
FE21A159,0.00818287581205368,0.019859885796904564,0.01846499554812908,0.03320383280515671,0.039861246943473816,0.01974022388458252,-0.016565293073654175,0.0013960822252556682,-0.019153814762830734,-0.0675833523273468,0.052318643778562546,-0.025790119543671608,0.021031375974416733,0.010955547913908958,0.04592756927013397,-0.022758111357688904,-0.005050350446254015,-0.016883375123143196,0.031011957675218582,-0.00509529048576951,0.06462906301021576,-0.026511315256357193,-0.005858990363776684,0.0069965459406375885,-0.005715546198189259,0.046403832733631134,0.10749252140522003,0.0038451883010566235,0.08915670961141586,0.001176480669528246,0.023112542927265167,-0.018874164670705795,-0.042010415345430374,0.02060074731707573,0.00011129910126328468,-0.018207361921668053,-0.027335036545991898,0.0136153819039464,0.004651976283639669,-0.028708282858133316,-0.0020414679311215878,-0.0740150436758995,0.015978876501321793,0.012481640093028545,0.021947089582681656,-0.04914883151650429,-0.03040160797536373,-0.011053025722503662,-0.047284048050642014,0.019057059660553932,0.017400292679667473,0.019278962165117264,0.01215644832700491,0.035024844110012054,-0.011203461326658726,-0.006157995201647282,-0.0005325513193383813,0.025173824280500412,0.030745750293135643,0.04880676418542862,0.09083424508571625,0.01030434388667345,0.01809229515492916,0.025081485509872437,0.016208533197641373,0.043532341718673706,-0.033169470727443695,-0.03360067680478096,-0.01543213240802288,0.010360226035118103,-0.0506158247590065,0.024617556482553482,0.007655718829482794,0.01153366919606924,0.010855430737137794,0.06250171363353729,-0.019124766811728477,-0.0860736295580864,-0.05493081361055374,0.0059758881106972694,0.06581725180149078,0.03503522649407387,-0.0014239447191357613,0.018289754167199135,0.04308895021677017,-0.04385090246796608,0.022013332694768906,0.04299568384885788,0.07975213974714279,0.05316876247525215,0.025435347110033035,0.016667401418089867,0.010105838999152184,0.051772765815258026,0.02831878699362278,-0.003944893833249807,-0.0531163327395916,0.02566082775592804,-0.051894284784793854,-0.09294836968183517,0.05135922506451607,-0.08413093537092209,0.021184111014008522,0.024516277015209198,-0.033590856939554214,0.029269952327013016,0.01485690288245678,-0.021671250462532043,-0.04704111069440842,0.009013147093355656,-0.03403237462043762,0.07878681272268295,-0.07983571290969849,-0.0052696107886731625,0.021454159170389175,-0.05372440069913864,-0.0754186362028122,0.012009677477180958,-0.0056038787588477135,0.05137547850608826,0.006036410108208656,0.04571404308080673,-0.00809401087462902,-0.05983378738164902,-0.06423807889223099,-0.028099138289690018,0.00597062474116683,-0.028107013553380966,0.037524688988924026,0.029708459973335266,-0.014370610937476158,0.06223129481077194,0.044575415551662445,-0.005793545860797167,-0.04784693196415901,-0.013314825482666492,0.013390710577368736,-0.014573553577065468,-0.0771997943520546,0.033216703683137894,0.023126270622015,0.04139336943626404,-0.005973453633487225,0.02790914475917816,-0.036629825830459595,-0.027372177690267563,0.044555120170116425,0.02670193836092949,0.012587064877152443,-0.01598021201789379,0.03132352977991104,0.040335703641176224,-0.031552646309137344,-0.00017858148203231394,0.009073382243514061,-0.029127636924386024,-0.09810112416744232,0.009108329191803932,0.07659409940242767,-0.004401984624564648,0.08417302370071411,-0.06022046133875847,0.02384180948138237,0.05631648749113083,0.032937921583652496,-0.0013409819221124053,-0.021106461063027382,-0.03506600856781006,0.03579224273562431,0.03512866050004959,0.0532081313431263,0.01827542670071125,-0.017093278467655182,-0.07061915844678879,-0.02202078327536583,0.0007837340235710144,-0.037897996604442596,-0.023664312437176704,-0.011728527955710888,0.0088575454428792,-0.01699194312095642,-0.011694188229739666,-0.09660007804632187,-0.06776704639196396,-0.055506207048892975,-0.006292565260082483,-0.004863970912992954,0.03198660537600517,-0.05302167683839798,-0.0037123127840459347,0.016382543370127678,0.01005941815674305,0.05210859701037407,-0.0798206776380539,-0.00786054041236639,-0.06112673133611679,0.00874163769185543,-0.03066440299153328,-0.042897578328847885,-0.013171114027500153,0.07569845020771027,-0.02315053902566433,0.021844375878572464,0.01604827120900154,-0.019889062270522118,0.06680084019899368,0.001203557476401329,-0.06219528988003731,-0.013491918332874775,0.0032724332995712757,0.0207984521985054,-0.02984795905649662,-0.01544266939163208,0.02801564894616604,-0.02596060372889042,-0.09269137680530548,-0.0472225695848465,0.09428317844867706,0.0014791619032621384,0.04246613383293152,-0.07562382519245148,-0.05602824687957764,-0.050069741904735565,-0.005085940007120371,0.0561552532017231,0.0037927243392914534,0.023966532200574875,0.015347962267696857,-0.08343949913978577,-0.06060975044965744,0.028074780479073524,-0.011268965899944305,-0.006779112853109837,-0.04300693795084953,0.005917220376431942,0.04272521287202835,0.014166240580379963,0.03466024622321129,-0.06856606155633926,0.009657132439315319,-0.01745157688856125,0.02420842833817005,-0.0006978057208471,0.06493736803531647,0.011954216286540031,0.0681048259139061,-0.009149698540568352,-0.0016858766321092844,-0.0462806299328804,0.040216363966464996,-0.07269295305013657,-0.0019889771938323975,-0.02136945351958275,0.019613191485404968,-0.02178659662604332,-0.02209363505244255,-0.03612109273672104,0.0668407753109932,0.07740684598684311,-0.016889598220586777,0.016700750216841698,-0.0746002346277237,0.048890694975852966,-0.029811223968863487,0.01635412499308586,0.01527290977537632,0.03719324618577957,0.0008092190837487578,-0.03117557428777218,-0.012946052476763725,0.08574528992176056,0.003391895443201065,0.0511779859662056,0.04954906553030014,0.07588908076286316,0.026085037738084793,-0.012830276973545551,-0.008597485721111298,-0.030358660966157913,-0.03589349985122681,-0.07283112406730652,-0.035454411059617996,-0.014570146799087524,-0.0850418284535408,-0.04970637708902359,-0.010728736408054829,-0.03524915128946304,0.007111932151019573,0.029446739703416824,-0.04511733725667,0.0552530474960804,-0.01933346316218376,-0.037768054753541946,-0.0185322817414999,-0.03983370214700699,-0.0235800389200449,0.03619282692670822,-0.04102388396859169,0.02687479555606842,-0.00014430246665142477,0.06803687661886215,-0.0075040897354483604,0.05989072471857071,-0.03092917799949646,0.0652359277009964,-0.01709570921957493,-0.020037507638335228,0.08133292943239212,-0.007862276397645473,0.019468221813440323,0.028971737250685692,0.03203240782022476,0.077092245221138,0.07509879022836685,0.042845141142606735,0.0062015242874622345,-0.005555265583097935,-0.011281716637313366,-0.015526113100349903,0.009949414990842342,0.005656923167407513,-0.04705135151743889,-0.07714445888996124,0.0049095721915364265,0.010224616155028343,-0.02911243960261345,0.11239977180957794,0.07438047975301743,0.01738847978413105,0.021319594234228134,0.04875286668539047,-0.04213183745741844,-0.07631314545869827,0.048907965421676636,0.00031186602427624166,-0.03945621848106384,-0.03157280758023262,-0.07157576084136963,0.015735823661088943,0.002487479941919446,0.05848504230380058,-0.011677666567265987,0.029106926172971725,-0.0056795538403093815,0.01418690849095583,-0.021199805662035942,-0.009114379063248634,0.021435970440506935,-0.035915542393922806,0.020170804113149643,-0.02808232232928276,-0.06418170779943466,0.01455303467810154,0.020568767562508583,-0.06714429706335068,0.11922931671142578,0.0916370376944542,-0.0024720393121242523,0.0023729964159429073,0.008429938927292824,-0.04300442710518837,0.003687827382236719,-0.012407602742314339,0.024734104052186012,-0.00565338134765625,-0.018717218190431595,0.013750049285590649,-0.021618450060486794,0.006326276808977127,-0.01633913628757,0.020161200314760208,-0.007564178667962551,0.0027705575339496136,0.029706835746765137,0.03268619626760483,0.044574230909347534,0.047886691987514496,-0.04295264557003975,-0.05610622838139534,-0.004062040708959103,0.019223013892769814,-0.0059097083285450935,0.017466524615883827,-0.012222575023770332,0.04539850726723671,-0.03330095484852791,0.0024981366004794836,0.04545217752456665,-0.013417269103229046,-0.05266198515892029,0.018101055175065994,0.0008262088522315025,-0.04065639153122902,-0.052703894674777985,0.020415863022208214,-0.00859142653644085,0.004538489039987326,0.1158284991979599,-0.06830288469791412,-0.0005208522197790444,-0.03824043646454811,0.034623533487319946,0.09242009371519089,-0.023519467562437057,-0.105687715113163,0.05005098506808281,0.02988051436841488,-0.024580715224146843,0.04930165410041809,0.025675788521766663,0.06971254199743271,0.0631260871887207,-0.019238989800214767,0.016973057761788368,0.015462067909538746,-0.06523555517196655,-0.06547559797763824,0.056217871606349945,-0.030640199780464172,-0.014639879576861858,-0.02379078045487404,0.011323991231620312,-0.0013599711237475276,-0.004021501634269953,-0.036162227392196655,0.021272582933306694,-0.03908803313970566,0.028220510110259056,0.0756416991353035,-0.06533847004175186,-0.004063089843839407,0.023711424320936203,0.0013561451341956854,0.019457701593637466,-0.032262008637189865,0.014827394858002663,-0.006808867212384939,-0.02633427456021309,0.051094330847263336,-0.002596682868897915,0.004662112332880497,0.0009113050764426589,-0.026950206607580185,-0.02615215815603733,-0.041389286518096924,0.06599798053503036,-0.007435607723891735,0.05601006746292114,-0.006945373024791479,0.07010874152183533,-0.016618574038147926,-0.017626803368330002,-0.0025432920083403587,-0.04644099250435829,-0.03505779057741165,0.039009615778923035,-0.031513065099716187,0.027032678946852684,-0.011141696013510227,0.044230639934539795,-0.007228836417198181,-0.010697036981582642,0.03178851678967476,0.03603674843907356,0.021328045055270195,-0.06947009265422821,-0.02678099274635315,0.006758924573659897,-0.0183156356215477,-0.022098664194345474,-0.011375301517546177,-0.016029849648475647,0.07134175300598145,-0.07675711810588837,-0.03906874731183052,0.042654313147068024,0.03524121642112732,0.06738626956939697,-0.045497022569179535,-0.1172574907541275,0.024126268923282623,-0.018397439271211624,0.020209601148962975,0.04781971871852875,-0.04613765329122543,0.027204787358641624,-0.07210323959589005,0.03218001127243042,-0.033812277019023895,-0.021908465772867203,-0.029723897576332092,-0.013083649799227715,0.019367191940546036,-0.0035355272702872753,0.043120551854372025,-0.021177804097533226,0.0012988165253773332,-0.08937154710292816,0.01426142267882824,-0.005963394418358803,-0.014261814765632153,0.010399814695119858,-0.05718427896499634,-0.06539376080036163,-0.02913525328040123,0.03131628781557083,0.07517340034246445,-0.035250332206487656,-0.04201780632138252,0.04606563597917557,0.0920317992568016,-0.03003825806081295
